## LambdaMART
## No. of trees = 1000
## No. of leaves = 10
## No. of threshold candidates = 256
## Learning rate = 0.1
## Stop early = 100

<ensemble>
	<tree id="1" weight="0.1">
		<split>
			<feature> 9 </feature>
			<threshold> 12.0 </threshold>
			<split pos="left">
				<feature> 4 </feature>
				<threshold> 54.0 </threshold>
				<split pos="left">
					<output> -1.5982543230056763 </output>
				</split>
				<split pos="right">
					<output> 0.9171455502510071 </output>
				</split>
			</split>
			<split pos="right">
				<feature> 2 </feature>
				<threshold> 4.0 </threshold>
				<split pos="left">
					<feature> 5 </feature>
					<threshold> 1.0 </threshold>
					<split pos="left">
						<output> -2.0 </output>
					</split>
					<split pos="right">
						<feature> 5 </feature>
						<threshold> 3.0 </threshold>
						<split pos="left">
							<feature> 8 </feature>
							<threshold> 0.0 </threshold>
							<split pos="left">
								<output> -2.0 </output>
							</split>
							<split pos="right">
								<feature> 5 </feature>
								<threshold> 2.0 </threshold>
								<split pos="left">
									<feature> 8 </feature>
									<threshold> 483.9922 </threshold>
									<split pos="left">
										<output> 1.9584110975265503 </output>
									</split>
									<split pos="right">
										<output> 0.0 </output>
									</split>
								</split>
								<split pos="right">
									<feature> 8 </feature>
									<threshold> 483.9922 </threshold>
									<split pos="left">
										<output> 1.9198122024536133 </output>
									</split>
									<split pos="right">
										<output> -2.0 </output>
									</split>
								</split>
							</split>
						</split>
						<split pos="right">
							<output> -2.0 </output>
						</split>
					</split>
				</split>
				<split pos="right">
					<output> -0.29380881786346436 </output>
				</split>
			</split>
		</split>
	</tree>
	<tree id="2" weight="0.1">
		<split>
			<feature> 16 </feature>
			<threshold> 0.0 </threshold>
			<split pos="left">
				<output> -0.9243174195289612 </output>
			</split>
			<split pos="right">
				<feature> 4 </feature>
				<threshold> 20.0 </threshold>
				<split pos="left">
					<output> -1.502432107925415 </output>
				</split>
				<split pos="right">
					<feature> 1 </feature>
					<threshold> 23.0 </threshold>
					<split pos="left">
						<feature> 5 </feature>
						<threshold> 0.0 </threshold>
						<split pos="left">
							<output> -2.1428494453430176 </output>
						</split>
						<split pos="right">
							<feature> 8 </feature>
							<threshold> 0.0 </threshold>
							<split pos="left">
								<output> 1.7805804014205933 </output>
							</split>
							<split pos="right">
								<feature> 5 </feature>
								<threshold> 3.0 </threshold>
								<split pos="left">
									<feature> 1 </feature>
									<threshold> 3.0 </threshold>
									<split pos="left">
										<output> -1.7322062253952026 </output>
									</split>
									<split pos="right">
										<feature> 5 </feature>
										<threshold> 1.0 </threshold>
										<split pos="left">
											<output> 1.7116032838821411 </output>
										</split>
										<split pos="right">
											<feature> 6 </feature>
											<threshold> 0.0 </threshold>
											<split pos="left">
												<output> 1.6354581117630005 </output>
											</split>
											<split pos="right">
												<output> 1.6736546754837036 </output>
											</split>
										</split>
									</split>
								</split>
								<split pos="right">
									<output> -2.1844165325164795 </output>
								</split>
							</split>
						</split>
					</split>
					<split pos="right">
						<output> 0.7941012382507324 </output>
					</split>
				</split>
			</split>
		</split>
	</tree>
	<tree id="3" weight="0.1">
		<split>
			<feature> 16 </feature>
			<threshold> 0.0 </threshold>
			<split pos="left">
				<output> -1.1962838172912598 </output>
			</split>
			<split pos="right">
				<feature> 4 </feature>
				<threshold> 20.0 </threshold>
				<split pos="left">
					<output> -1.326075553894043 </output>
				</split>
				<split pos="right">
					<feature> 1 </feature>
					<threshold> 26.0 </threshold>
					<split pos="left">
						<feature> 5 </feature>
						<threshold> 0.0 </threshold>
						<split pos="left">
							<output> 0.0 </output>
						</split>
						<split pos="right">
							<feature> 8 </feature>
							<threshold> 0.0 </threshold>
							<split pos="left">
								<output> 1.5937926769256592 </output>
							</split>
							<split pos="right">
								<feature> 5 </feature>
								<threshold> 3.0 </threshold>
								<split pos="left">
									<feature> 2 </feature>
									<threshold> 31.0 </threshold>
									<split pos="left">
										<feature> 5 </feature>
										<threshold> 1.0 </threshold>
										<split pos="left">
											<output> 1.5235917568206787 </output>
										</split>
										<split pos="right">
											<feature> 1 </feature>
											<threshold> 4.0 </threshold>
											<split pos="left">
												<output> 1.5044386386871338 </output>
											</split>
											<split pos="right">
												<output> 1.449005365371704 </output>
											</split>
										</split>
									</split>
									<split pos="right">
										<output> -1.524018406867981 </output>
									</split>
								</split>
								<split pos="right">
									<output> -1.6222529411315918 </output>
								</split>
							</split>
						</split>
					</split>
					<split pos="right">
						<output> 0.2059396207332611 </output>
					</split>
				</split>
			</split>
		</split>
	</tree>
	<tree id="4" weight="0.1">
		<split>
			<feature> 16 </feature>
			<threshold> 0.0 </threshold>
			<split pos="left">
				<output> -1.0375401973724365 </output>
			</split>
			<split pos="right">
				<feature> 4 </feature>
				<threshold> 20.0 </threshold>
				<split pos="left">
					<output> -1.1818779706954956 </output>
				</split>
				<split pos="right">
					<feature> 1 </feature>
					<threshold> 20.0 </threshold>
					<split pos="left">
						<feature> 5 </feature>
						<threshold> 0.0 </threshold>
						<split pos="left">
							<output> 0.0 </output>
						</split>
						<split pos="right">
							<feature> 8 </feature>
							<threshold> 0.0 </threshold>
							<split pos="left">
								<output> 1.4467357397079468 </output>
							</split>
							<split pos="right">
								<feature> 5 </feature>
								<threshold> 3.0 </threshold>
								<split pos="left">
									<feature> 1 </feature>
									<threshold> 3.0 </threshold>
									<split pos="left">
										<output> -1.3871887922286987 </output>
									</split>
									<split pos="right">
										<feature> 5 </feature>
										<threshold> 1.0 </threshold>
										<split pos="left">
											<output> 1.3714063167572021 </output>
										</split>
										<split pos="right">
											<feature> 1 </feature>
											<threshold> 4.0 </threshold>
											<split pos="left">
												<output> 1.368499755859375 </output>
											</split>
											<split pos="right">
												<output> 1.292036771774292 </output>
											</split>
										</split>
									</split>
								</split>
								<split pos="right">
									<output> -1.5190383195877075 </output>
								</split>
							</split>
						</split>
					</split>
					<split pos="right">
						<output> 0.09151013940572739 </output>
					</split>
				</split>
			</split>
		</split>
	</tree>
	<tree id="5" weight="0.1">
		<split>
			<feature> 16 </feature>
			<threshold> 0.0 </threshold>
			<split pos="left">
				<output> -0.8811231851577759 </output>
			</split>
			<split pos="right">
				<feature> 4 </feature>
				<threshold> 20.0 </threshold>
				<split pos="left">
					<output> -1.0500568151474 </output>
				</split>
				<split pos="right">
					<feature> 1 </feature>
					<threshold> 20.0 </threshold>
					<split pos="left">
						<feature> 5 </feature>
						<threshold> 0.0 </threshold>
						<split pos="left">
							<output> 0.0 </output>
						</split>
						<split pos="right">
							<feature> 8 </feature>
							<threshold> 0.0 </threshold>
							<split pos="left">
								<output> 1.3414838314056396 </output>
							</split>
							<split pos="right">
								<feature> 5 </feature>
								<threshold> 3.0 </threshold>
								<split pos="left">
									<feature> 2 </feature>
									<threshold> 31.0 </threshold>
									<split pos="left">
										<feature> 5 </feature>
										<threshold> 1.0 </threshold>
										<split pos="left">
											<output> 1.204600214958191 </output>
										</split>
										<split pos="right">
											<feature> 1 </feature>
											<threshold> 4.0 </threshold>
											<split pos="left">
												<output> 1.270251750946045 </output>
											</split>
											<split pos="right">
												<output> 1.1757055521011353 </output>
											</split>
										</split>
									</split>
									<split pos="right">
										<output> -1.2942460775375366 </output>
									</split>
								</split>
								<split pos="right">
									<output> -1.442448377609253 </output>
								</split>
							</split>
						</split>
					</split>
					<split pos="right">
						<output> -0.24161596596240997 </output>
					</split>
				</split>
			</split>
		</split>
	</tree>
	<tree id="6" weight="0.1">
		<split>
			<feature> 16 </feature>
			<threshold> 0.0 </threshold>
			<split pos="left">
				<output> -0.7782827615737915 </output>
			</split>
			<split pos="right">
				<feature> 4 </feature>
				<threshold> 20.0 </threshold>
				<split pos="left">
					<output> -0.9606647491455078 </output>
				</split>
				<split pos="right">
					<feature> 1 </feature>
					<threshold> 29.0 </threshold>
					<split pos="left">
						<feature> 5 </feature>
						<threshold> 0.0 </threshold>
						<split pos="left">
							<output> 0.0 </output>
						</split>
						<split pos="right">
							<feature> 8 </feature>
							<threshold> 0.0 </threshold>
							<split pos="left">
								<output> 1.2665296792984009 </output>
							</split>
							<split pos="right">
								<feature> 5 </feature>
								<threshold> 3.0 </threshold>
								<split pos="left">
									<feature> 1 </feature>
									<threshold> 3.0 </threshold>
									<split pos="left">
										<output> -1.2286003828048706 </output>
									</split>
									<split pos="right">
										<feature> 5 </feature>
										<threshold> 1.0 </threshold>
										<split pos="left">
											<output> 1.1161863803863525 </output>
										</split>
										<split pos="right">
											<feature> 6 </feature>
											<threshold> 0.0 </threshold>
											<split pos="left">
												<output> 1.0839124917984009 </output>
											</split>
											<split pos="right">
												<output> 1.1968201398849487 </output>
											</split>
										</split>
									</split>
								</split>
								<split pos="right">
									<output> -1.3956232070922852 </output>
								</split>
							</split>
						</split>
					</split>
					<split pos="right">
						<output> -0.2941840589046478 </output>
					</split>
				</split>
			</split>
		</split>
	</tree>
	<tree id="7" weight="0.1">
		<split>
			<feature> 16 </feature>
			<threshold> 0.0 </threshold>
			<split pos="left">
				<output> -0.6877481341362 </output>
			</split>
			<split pos="right">
				<feature> 4 </feature>
				<threshold> 20.0 </threshold>
				<split pos="left">
					<output> -0.8832226395606995 </output>
				</split>
				<split pos="right">
					<feature> 1 </feature>
					<threshold> 20.0 </threshold>
					<split pos="left">
						<feature> 5 </feature>
						<threshold> 0.0 </threshold>
						<split pos="left">
							<output> 0.0 </output>
						</split>
						<split pos="right">
							<feature> 8 </feature>
							<threshold> 0.0 </threshold>
							<split pos="left">
								<output> 1.2092033624649048 </output>
							</split>
							<split pos="right">
								<feature> 5 </feature>
								<threshold> 3.0 </threshold>
								<split pos="left">
									<feature> 2 </feature>
									<threshold> 31.0 </threshold>
									<split pos="left">
										<feature> 5 </feature>
										<threshold> 1.0 </threshold>
										<split pos="left">
											<output> 1.042457938194275 </output>
										</split>
										<split pos="right">
											<feature> 1 </feature>
											<threshold> 4.0 </threshold>
											<split pos="left">
												<output> 1.1381454467773438 </output>
											</split>
											<split pos="right">
												<output> 1.006664514541626 </output>
											</split>
										</split>
									</split>
									<split pos="right">
										<output> -1.180247187614441 </output>
									</split>
								</split>
								<split pos="right">
									<output> -1.3546396493911743 </output>
								</split>
							</split>
						</split>
					</split>
					<split pos="right">
						<output> -0.33407077193260193 </output>
					</split>
				</split>
			</split>
		</split>
	</tree>
	<tree id="8" weight="0.1">
		<split>
			<feature> 5 </feature>
			<threshold> 0.0 </threshold>
			<split pos="left">
				<output> -1.4190744161605835 </output>
			</split>
			<split pos="right">
				<feature> 4 </feature>
				<threshold> 20.0 </threshold>
				<split pos="left">
					<output> -0.5115116834640503 </output>
				</split>
				<split pos="right">
					<feature> 2 </feature>
					<threshold> 4.0 </threshold>
					<split pos="left">
						<feature> 5 </feature>
						<threshold> 1.0 </threshold>
						<split pos="left">
							<output> -4.122143745422363 </output>
						</split>
						<split pos="right">
							<output> 1.0845975875854492 </output>
						</split>
					</split>
					<split pos="right">
						<feature> 8 </feature>
						<threshold> 0.0 </threshold>
						<split pos="left">
							<feature> 3 </feature>
							<threshold> 2.0 </threshold>
							<split pos="left">
								<feature> 16 </feature>
								<threshold> 0.0 </threshold>
								<split pos="left">
									<output> -1.2457138299942017 </output>
								</split>
								<split pos="right">
									<feature> 4 </feature>
									<threshold> 28.0 </threshold>
									<split pos="left">
										<output> -2.1212432384490967 </output>
									</split>
									<split pos="right">
										<output> 1.2765567302703857 </output>
									</split>
								</split>
							</split>
							<split pos="right">
								<output> -1.0933419466018677 </output>
							</split>
						</split>
						<split pos="right">
							<feature> 1 </feature>
							<threshold> 20.0 </threshold>
							<split pos="left">
								<output> 1.0838940143585205 </output>
							</split>
							<split pos="right">
								<output> 0.5639544725418091 </output>
							</split>
						</split>
					</split>
				</split>
			</split>
		</split>
	</tree>
	<tree id="9" weight="0.1">
		<split>
			<feature> 6 </feature>
			<threshold> 355.0 </threshold>
			<split pos="left">
				<feature> 5 </feature>
				<threshold> 0.0 </threshold>
				<split pos="left">
					<output> -1.31148362159729 </output>
				</split>
				<split pos="right">
					<feature> 4 </feature>
					<threshold> 20.0 </threshold>
					<split pos="left">
						<output> -0.4281827509403229 </output>
					</split>
					<split pos="right">
						<feature> 2 </feature>
						<threshold> 4.0 </threshold>
						<split pos="left">
							<feature> 5 </feature>
							<threshold> 1.0 </threshold>
							<split pos="left">
								<output> -3.1597886085510254 </output>
							</split>
							<split pos="right">
								<output> 1.0357491970062256 </output>
							</split>
						</split>
						<split pos="right">
							<feature> 8 </feature>
							<threshold> 0.0 </threshold>
							<split pos="left">
								<feature> 3 </feature>
								<threshold> 2.0 </threshold>
								<split pos="left">
									<feature> 16 </feature>
									<threshold> 0.0 </threshold>
									<split pos="left">
										<output> -1.1911827325820923 </output>
									</split>
									<split pos="right">
										<output> 1.202311396598816 </output>
									</split>
								</split>
								<split pos="right">
									<output> -0.9905454516410828 </output>
								</split>
							</split>
							<split pos="right">
								<feature> 1 </feature>
								<threshold> 20.0 </threshold>
								<split pos="left">
									<output> 1.0215864181518555 </output>
								</split>
								<split pos="right">
									<output> 0.5717417001724243 </output>
								</split>
							</split>
						</split>
					</split>
				</split>
			</split>
			<split pos="right">
				<output> -2.8748278617858887 </output>
			</split>
		</split>
	</tree>
	<tree id="10" weight="0.1">
		<split>
			<feature> 5 </feature>
			<threshold> 0.0 </threshold>
			<split pos="left">
				<output> -1.2888679504394531 </output>
			</split>
			<split pos="right">
				<feature> 4 </feature>
				<threshold> 20.0 </threshold>
				<split pos="left">
					<output> -0.341904878616333 </output>
				</split>
				<split pos="right">
					<feature> 2 </feature>
					<threshold> 4.0 </threshold>
					<split pos="left">
						<feature> 5 </feature>
						<threshold> 3.0 </threshold>
						<split pos="left">
							<feature> 5 </feature>
							<threshold> 1.0 </threshold>
							<split pos="left">
								<output> -1.2877275943756104 </output>
							</split>
							<split pos="right">
								<output> 1.0001872777938843 </output>
							</split>
						</split>
						<split pos="right">
							<output> -3.1736063957214355 </output>
						</split>
					</split>
					<split pos="right">
						<feature> 8 </feature>
						<threshold> 0.0 </threshold>
						<split pos="left">
							<output> 0.9538996815681458 </output>
						</split>
						<split pos="right">
							<feature> 1 </feature>
							<threshold> 20.0 </threshold>
							<split pos="left">
								<feature> 1 </feature>
								<threshold> 19.0 </threshold>
								<split pos="left">
									<output> 1.8328219652175903 </output>
								</split>
								<split pos="right">
									<feature> 5 </feature>
									<threshold> 1.0 </threshold>
									<split pos="left">
										<output> 0.9587103128433228 </output>
									</split>
									<split pos="right">
										<output> 0.8166666030883789 </output>
									</split>
								</split>
							</split>
							<split pos="right">
								<output> 0.38471025228500366 </output>
							</split>
						</split>
					</split>
				</split>
			</split>
		</split>
	</tree>
	<tree id="11" weight="0.1">
		<split>
			<feature> 9 </feature>
			<threshold> 12.0 </threshold>
			<split pos="left">
				<feature> 1 </feature>
				<threshold> 2910.0 </threshold>
				<split pos="left">
					<output> -0.1779359132051468 </output>
				</split>
				<split pos="right">
					<output> -2.232602834701538 </output>
				</split>
			</split>
			<split pos="right">
				<feature> 2 </feature>
				<threshold> 4.0 </threshold>
				<split pos="left">
					<output> 0.9501088261604309 </output>
				</split>
				<split pos="right">
					<feature> 2 </feature>
					<threshold> 11.0 </threshold>
					<split pos="left">
						<feature> 2 </feature>
						<threshold> 10.0 </threshold>
						<split pos="left">
							<output> -1.215247392654419 </output>
						</split>
						<split pos="right">
							<feature> 5 </feature>
							<threshold> 0.0 </threshold>
							<split pos="left">
								<output> -1.1553173065185547 </output>
							</split>
							<split pos="right">
								<feature> 5 </feature>
								<threshold> 1.0 </threshold>
								<split pos="left">
									<feature> 8 </feature>
									<threshold> 0.0 </threshold>
									<split pos="left">
										<output> 0.0 </output>
									</split>
									<split pos="right">
										<feature> 8 </feature>
										<threshold> 483.9922 </threshold>
										<split pos="left">
											<output> 1.4174350500106812 </output>
										</split>
										<split pos="right">
											<output> 0.0 </output>
										</split>
									</split>
								</split>
								<split pos="right">
									<output> -2.5067620277404785 </output>
								</split>
							</split>
						</split>
					</split>
					<split pos="right">
						<output> 0.21589188277721405 </output>
					</split>
				</split>
			</split>
		</split>
	</tree>
	<tree id="12" weight="0.1">
		<split>
			<feature> 5 </feature>
			<threshold> 0.0 </threshold>
			<split pos="left">
				<output> -1.2615488767623901 </output>
			</split>
			<split pos="right">
				<feature> 4 </feature>
				<threshold> 20.0 </threshold>
				<split pos="left">
					<output> -0.3768574595451355 </output>
				</split>
				<split pos="right">
					<feature> 2 </feature>
					<threshold> 4.0 </threshold>
					<split pos="left">
						<output> 0.9231095314025879 </output>
					</split>
					<split pos="right">
						<feature> 1 </feature>
						<threshold> 20.0 </threshold>
						<split pos="left">
							<feature> 1 </feature>
							<threshold> 19.0 </threshold>
							<split pos="left">
								<feature> 6 </feature>
								<threshold> 19.0 </threshold>
								<split pos="left">
									<output> -0.7650789618492126 </output>
								</split>
								<split pos="right">
									<feature> 3 </feature>
									<threshold> 5.0 </threshold>
									<split pos="left">
										<feature> 5 </feature>
										<threshold> 1.0 </threshold>
										<split pos="left">
											<feature> 8 </feature>
											<threshold> 0.0 </threshold>
											<split pos="left">
												<output> 0.0 </output>
											</split>
											<split pos="right">
												<output> 1.3494404554367065 </output>
											</split>
										</split>
										<split pos="right">
											<output> -1.2342674732208252 </output>
										</split>
									</split>
									<split pos="right">
										<output> -2.3460044860839844 </output>
									</split>
								</split>
							</split>
							<split pos="right">
								<output> 0.9617324471473694 </output>
							</split>
						</split>
						<split pos="right">
							<output> 0.655661940574646 </output>
						</split>
					</split>
				</split>
			</split>
		</split>
	</tree>
	<tree id="13" weight="0.1">
		<split>
			<feature> 4 </feature>
			<threshold> 54.0 </threshold>
			<split pos="left">
				<output> -0.790672242641449 </output>
			</split>
			<split pos="right">
				<feature> 5 </feature>
				<threshold> 4.0 </threshold>
				<split pos="left">
					<feature> 4 </feature>
					<threshold> 55.0 </threshold>
					<split pos="left">
						<output> 0.8924087882041931 </output>
					</split>
					<split pos="right">
						<feature> 12 </feature>
						<threshold> 0.0 </threshold>
						<split pos="left">
							<output> -0.5536083579063416 </output>
						</split>
						<split pos="right">
							<feature> 5 </feature>
							<threshold> 0.0 </threshold>
							<split pos="left">
								<output> -1.0333819389343262 </output>
							</split>
							<split pos="right">
								<feature> 3 </feature>
								<threshold> 6.0 </threshold>
								<split pos="left">
									<feature> 5 </feature>
									<threshold> 2.0 </threshold>
									<split pos="left">
										<feature> 5 </feature>
										<threshold> 1.0 </threshold>
										<split pos="left">
											<output> 1.3809623718261719 </output>
										</split>
										<split pos="right">
											<output> 1.3995569944381714 </output>
										</split>
									</split>
									<split pos="right">
										<output> -2.0 </output>
									</split>
								</split>
								<split pos="right">
									<output> -1.3163310289382935 </output>
								</split>
							</split>
						</split>
					</split>
				</split>
				<split pos="right">
					<feature> 3 </feature>
					<threshold> 5.0 </threshold>
					<split pos="left">
						<output> 1.278613567352295 </output>
					</split>
					<split pos="right">
						<output> 1.1602472066879272 </output>
					</split>
				</split>
			</split>
		</split>
	</tree>
	<tree id="14" weight="0.1">
		<split>
			<feature> 4 </feature>
			<threshold> 54.0 </threshold>
			<split pos="left">
				<output> -0.8927753567695618 </output>
			</split>
			<split pos="right">
				<feature> 5 </feature>
				<threshold> 4.0 </threshold>
				<split pos="left">
					<feature> 4 </feature>
					<threshold> 55.0 </threshold>
					<split pos="left">
						<output> 0.8136853575706482 </output>
					</split>
					<split pos="right">
						<feature> 12 </feature>
						<threshold> 0.0 </threshold>
						<split pos="left">
							<output> -0.6122475266456604 </output>
						</split>
						<split pos="right">
							<feature> 5 </feature>
							<threshold> 0.0 </threshold>
							<split pos="left">
								<output> -1.095807433128357 </output>
							</split>
							<split pos="right">
								<output> 1.2641057968139648 </output>
							</split>
						</split>
					</split>
				</split>
				<split pos="right">
					<feature> 3 </feature>
					<threshold> 5.0 </threshold>
					<split pos="left">
						<feature> 8 </feature>
						<threshold> 0.0 </threshold>
						<split pos="left">
							<output> 1.3923577070236206 </output>
						</split>
						<split pos="right">
							<feature> 4 </feature>
							<threshold> 135.0 </threshold>
							<split pos="left">
								<output> 1.0810626745224 </output>
							</split>
							<split pos="right">
								<feature> 5 </feature>
								<threshold> 9.0 </threshold>
								<split pos="left">
									<output> 1.3439630270004272 </output>
								</split>
								<split pos="right">
									<output> 1.1620081663131714 </output>
								</split>
							</split>
						</split>
					</split>
					<split pos="right">
						<output> 1.1080684661865234 </output>
					</split>
				</split>
			</split>
		</split>
	</tree>
	<tree id="15" weight="0.1">
		<split>
			<feature> 4 </feature>
			<threshold> 113.0 </threshold>
			<split pos="left">
				<feature> 4 </feature>
				<threshold> 54.0 </threshold>
				<split pos="left">
					<output> -0.9087177515029907 </output>
				</split>
				<split pos="right">
					<output> 0.4413643479347229 </output>
				</split>
			</split>
			<split pos="right">
				<feature> 5 </feature>
				<threshold> 5.0 </threshold>
				<split pos="left">
					<output> 0.2163938730955124 </output>
				</split>
				<split pos="right">
					<feature> 1 </feature>
					<threshold> 143.0 </threshold>
					<split pos="left">
						<feature> 8 </feature>
						<threshold> 0.0 </threshold>
						<split pos="left">
							<output> 1.3770283460617065 </output>
						</split>
						<split pos="right">
							<feature> 3 </feature>
							<threshold> 5.0 </threshold>
							<split pos="left">
								<feature> 5 </feature>
								<threshold> 9.0 </threshold>
								<split pos="left">
									<feature> 1 </feature>
									<threshold> 99.0 </threshold>
									<split pos="left">
										<output> 1.2920832633972168 </output>
									</split>
									<split pos="right">
										<feature> 5 </feature>
										<threshold> 7.0 </threshold>
										<split pos="left">
											<output> 1.2813196182250977 </output>
										</split>
										<split pos="right">
											<output> 1.2976062297821045 </output>
										</split>
									</split>
								</split>
								<split pos="right">
									<output> 1.092631459236145 </output>
								</split>
							</split>
							<split pos="right">
								<output> 0.3267066478729248 </output>
							</split>
						</split>
					</split>
					<split pos="right">
						<output> 1.081954002380371 </output>
					</split>
				</split>
			</split>
		</split>
	</tree>
	<tree id="16" weight="0.1">
		<split>
			<feature> 4 </feature>
			<threshold> 105.0 </threshold>
			<split pos="left">
				<output> -0.6070476174354553 </output>
			</split>
			<split pos="right">
				<feature> 5 </feature>
				<threshold> 5.0 </threshold>
				<split pos="left">
					<output> 0.02155960537493229 </output>
				</split>
				<split pos="right">
					<feature> 3 </feature>
					<threshold> 5.0 </threshold>
					<split pos="left">
						<feature> 8 </feature>
						<threshold> 0.0 </threshold>
						<split pos="left">
							<output> 1.2683154344558716 </output>
						</split>
						<split pos="right">
							<feature> 3 </feature>
							<threshold> 2.0 </threshold>
							<split pos="left">
								<output> -3.0877037048339844 </output>
							</split>
							<split pos="right">
								<feature> 5 </feature>
								<threshold> 9.0 </threshold>
								<split pos="left">
									<feature> 1 </feature>
									<threshold> 143.0 </threshold>
									<split pos="left">
										<feature> 5 </feature>
										<threshold> 8.0 </threshold>
										<split pos="left">
											<feature> 1 </feature>
											<threshold> 99.0 </threshold>
											<split pos="left">
												<output> 1.2307623624801636 </output>
											</split>
											<split pos="right">
												<output> 1.2327039241790771 </output>
											</split>
										</split>
										<split pos="right">
											<output> 1.2722432613372803 </output>
										</split>
									</split>
									<split pos="right">
										<output> -3.1562130451202393 </output>
									</split>
								</split>
								<split pos="right">
									<output> 0.9704279899597168 </output>
								</split>
							</split>
						</split>
					</split>
					<split pos="right">
						<output> 1.0251388549804688 </output>
					</split>
				</split>
			</split>
		</split>
	</tree>
	<tree id="17" weight="0.1">
		<split>
			<feature> 4 </feature>
			<threshold> 113.0 </threshold>
			<split pos="left">
				<output> -0.6563109755516052 </output>
			</split>
			<split pos="right">
				<feature> 5 </feature>
				<threshold> 5.0 </threshold>
				<split pos="left">
					<feature> 4 </feature>
					<threshold> 116.0 </threshold>
					<split pos="left">
						<output> 1.1647135019302368 </output>
					</split>
					<split pos="right">
						<output> -0.463864803314209 </output>
					</split>
				</split>
				<split pos="right">
					<feature> 1 </feature>
					<threshold> 143.0 </threshold>
					<split pos="left">
						<feature> 8 </feature>
						<threshold> 0.0 </threshold>
						<split pos="left">
							<output> 1.2595677375793457 </output>
						</split>
						<split pos="right">
							<feature> 5 </feature>
							<threshold> 9.0 </threshold>
							<split pos="left">
								<feature> 3 </feature>
								<threshold> 5.0 </threshold>
								<split pos="left">
									<feature> 5 </feature>
									<threshold> 8.0 </threshold>
									<split pos="left">
										<feature> 1 </feature>
										<threshold> 99.0 </threshold>
										<split pos="left">
											<output> 1.1829071044921875 </output>
										</split>
										<split pos="right">
											<output> 1.182490587234497 </output>
										</split>
									</split>
									<split pos="right">
										<output> 1.2323423624038696 </output>
									</split>
								</split>
								<split pos="right">
									<output> -0.07324011623859406 </output>
								</split>
							</split>
							<split pos="right">
								<output> 0.9469950795173645 </output>
							</split>
						</split>
					</split>
					<split pos="right">
						<output> 0.9486871957778931 </output>
					</split>
				</split>
			</split>
		</split>
	</tree>
	<tree id="18" weight="0.1">
		<split>
			<feature> 4 </feature>
			<threshold> 105.0 </threshold>
			<split pos="left">
				<output> -0.6914410591125488 </output>
			</split>
			<split pos="right">
				<feature> 5 </feature>
				<threshold> 5.0 </threshold>
				<split pos="left">
					<feature> 4 </feature>
					<threshold> 116.0 </threshold>
					<split pos="left">
						<feature> 5 </feature>
						<threshold> 3.0 </threshold>
						<split pos="left">
							<output> 0.8879929184913635 </output>
						</split>
						<split pos="right">
							<output> 1.251715064048767 </output>
						</split>
					</split>
					<split pos="right">
						<output> -0.44119298458099365 </output>
					</split>
				</split>
				<split pos="right">
					<feature> 3 </feature>
					<threshold> 5.0 </threshold>
					<split pos="left">
						<feature> 8 </feature>
						<threshold> 0.0 </threshold>
						<split pos="left">
							<output> 1.1926372051239014 </output>
						</split>
						<split pos="right">
							<feature> 3 </feature>
							<threshold> 2.0 </threshold>
							<split pos="left">
								<output> -1.5830169916152954 </output>
							</split>
							<split pos="right">
								<feature> 5 </feature>
								<threshold> 9.0 </threshold>
								<split pos="left">
									<feature> 4 </feature>
									<threshold> 135.0 </threshold>
									<split pos="left">
										<output> -1.7504349946975708 </output>
									</split>
									<split pos="right">
										<output> 1.16669499874115 </output>
									</split>
								</split>
								<split pos="right">
									<output> 0.7633664608001709 </output>
								</split>
							</split>
						</split>
					</split>
					<split pos="right">
						<output> 0.8817723989486694 </output>
					</split>
				</split>
			</split>
		</split>
	</tree>
	<tree id="19" weight="0.1">
		<split>
			<feature> 4 </feature>
			<threshold> 113.0 </threshold>
			<split pos="left">
				<output> -0.6124393939971924 </output>
			</split>
			<split pos="right">
				<feature> 5 </feature>
				<threshold> 3.0 </threshold>
				<split pos="left">
					<output> 0.005306210834532976 </output>
				</split>
				<split pos="right">
					<feature> 4 </feature>
					<threshold> 115.0 </threshold>
					<split pos="left">
						<output> 1.1927025318145752 </output>
					</split>
					<split pos="right">
						<feature> 1 </feature>
						<threshold> 143.0 </threshold>
						<split pos="left">
							<feature> 3 </feature>
							<threshold> 5.0 </threshold>
							<split pos="left">
								<feature> 8 </feature>
								<threshold> 0.0 </threshold>
								<split pos="left">
									<output> 1.1897530555725098 </output>
								</split>
								<split pos="right">
									<feature> 5 </feature>
									<threshold> 9.0 </threshold>
									<split pos="left">
										<feature> 5 </feature>
										<threshold> 5.0 </threshold>
										<split pos="left">
											<output> 0.8958552479743958 </output>
										</split>
										<split pos="right">
											<feature> 5 </feature>
											<threshold> 8.0 </threshold>
											<split pos="left">
												<output> 1.1178308725357056 </output>
											</split>
											<split pos="right">
												<output> 1.171049952507019 </output>
											</split>
										</split>
									</split>
									<split pos="right">
										<output> 0.7885475754737854 </output>
									</split>
								</split>
							</split>
							<split pos="right">
								<output> -0.16034552454948425 </output>
							</split>
						</split>
						<split pos="right">
							<output> 0.7662666440010071 </output>
						</split>
					</split>
				</split>
			</split>
		</split>
	</tree>
	<tree id="20" weight="0.1">
		<split>
			<feature> 4 </feature>
			<threshold> 105.0 </threshold>
			<split pos="left">
				<output> -0.6377480030059814 </output>
			</split>
			<split pos="right">
				<feature> 5 </feature>
				<threshold> 5.0 </threshold>
				<split pos="left">
					<feature> 4 </feature>
					<threshold> 118.0 </threshold>
					<split pos="left">
						<feature> 5 </feature>
						<threshold> 3.0 </threshold>
						<split pos="left">
							<output> 0.8596846461296082 </output>
						</split>
						<split pos="right">
							<output> 1.1495635509490967 </output>
						</split>
					</split>
					<split pos="right">
						<output> -0.48303985595703125 </output>
					</split>
				</split>
				<split pos="right">
					<feature> 3 </feature>
					<threshold> 5.0 </threshold>
					<split pos="left">
						<feature> 8 </feature>
						<threshold> 0.0 </threshold>
						<split pos="left">
							<output> 1.1410773992538452 </output>
						</split>
						<split pos="right">
							<feature> 5 </feature>
							<threshold> 9.0 </threshold>
							<split pos="left">
								<output> 1.106935977935791 </output>
							</split>
							<split pos="right">
								<output> 0.49391990900039673 </output>
							</split>
						</split>
					</split>
					<split pos="right">
						<feature> 8 </feature>
						<threshold> 3387.9453 </threshold>
						<split pos="left">
							<feature> 4 </feature>
							<threshold> 127.0 </threshold>
							<split pos="left">
								<output> 1.0631651878356934 </output>
							</split>
							<split pos="right">
								<output> 0.5890479683876038 </output>
							</split>
						</split>
						<split pos="right">
							<output> 1.1571065187454224 </output>
						</split>
					</split>
				</split>
			</split>
		</split>
	</tree>
	<tree id="21" weight="0.1">
		<split>
			<feature> 4 </feature>
			<threshold> 113.0 </threshold>
			<split pos="left">
				<output> -0.6109786033630371 </output>
			</split>
			<split pos="right">
				<feature> 5 </feature>
				<threshold> 5.0 </threshold>
				<split pos="left">
					<feature> 4 </feature>
					<threshold> 118.0 </threshold>
					<split pos="left">
						<feature> 5 </feature>
						<threshold> 2.0 </threshold>
						<split pos="left">
							<output> 0.9809930324554443 </output>
						</split>
						<split pos="right">
							<output> 1.1888676881790161 </output>
						</split>
					</split>
					<split pos="right">
						<output> -0.4970150887966156 </output>
					</split>
				</split>
				<split pos="right">
					<feature> 1 </feature>
					<threshold> 143.0 </threshold>
					<split pos="left">
						<feature> 5 </feature>
						<threshold> 9.0 </threshold>
						<split pos="left">
							<feature> 3 </feature>
							<threshold> 5.0 </threshold>
							<split pos="left">
								<feature> 8 </feature>
								<threshold> 0.0 </threshold>
								<split pos="left">
									<output> 1.1390364170074463 </output>
								</split>
								<split pos="right">
									<output> 1.0922157764434814 </output>
								</split>
							</split>
							<split pos="right">
								<output> -0.3568459153175354 </output>
							</split>
						</split>
						<split pos="right">
							<output> 0.677390992641449 </output>
						</split>
					</split>
					<split pos="right">
						<feature> 4 </feature>
						<threshold> 127.0 </threshold>
						<split pos="left">
							<output> 1.0690659284591675 </output>
						</split>
						<split pos="right">
							<output> 0.5203930139541626 </output>
						</split>
					</split>
				</split>
			</split>
		</split>
	</tree>
	<tree id="22" weight="0.1">
		<split>
			<feature> 4 </feature>
			<threshold> 113.0 </threshold>
			<split pos="left">
				<output> -0.6095514893531799 </output>
			</split>
			<split pos="right">
				<feature> 4 </feature>
				<threshold> 118.0 </threshold>
				<split pos="left">
					<feature> 5 </feature>
					<threshold> 25.0 </threshold>
					<split pos="left">
						<feature> 5 </feature>
						<threshold> 2.0 </threshold>
						<split pos="left">
							<output> 0.9576077461242676 </output>
						</split>
						<split pos="right">
							<feature> 3 </feature>
							<threshold> 6.0 </threshold>
							<split pos="left">
								<output> -3.8977153301239014 </output>
							</split>
							<split pos="right">
								<feature> 5 </feature>
								<threshold> 6.0 </threshold>
								<split pos="left">
									<feature> 1 </feature>
									<threshold> 167.0 </threshold>
									<split pos="left">
										<output> 1.2105190753936768 </output>
									</split>
									<split pos="right">
										<output> 1.1243460178375244 </output>
									</split>
								</split>
								<split pos="right">
									<output> 0.9458189010620117 </output>
								</split>
							</split>
						</split>
					</split>
					<split pos="right">
						<output> 1.1214617490768433 </output>
					</split>
				</split>
				<split pos="right">
					<feature> 5 </feature>
					<threshold> 5.0 </threshold>
					<split pos="left">
						<output> -0.4873102903366089 </output>
					</split>
					<split pos="right">
						<feature> 1 </feature>
						<threshold> 143.0 </threshold>
						<split pos="left">
							<output> 1.0416182279586792 </output>
						</split>
						<split pos="right">
							<output> 0.616430938243866 </output>
						</split>
					</split>
				</split>
			</split>
		</split>
	</tree>
	<tree id="23" weight="0.1">
		<split>
			<feature> 4 </feature>
			<threshold> 113.0 </threshold>
			<split pos="left">
				<output> -0.5660935044288635 </output>
			</split>
			<split pos="right">
				<feature> 4 </feature>
				<threshold> 118.0 </threshold>
				<split pos="left">
					<feature> 5 </feature>
					<threshold> 25.0 </threshold>
					<split pos="left">
						<feature> 5 </feature>
						<threshold> 2.0 </threshold>
						<split pos="left">
							<output> 0.888712465763092 </output>
						</split>
						<split pos="right">
							<feature> 3 </feature>
							<threshold> 6.0 </threshold>
							<split pos="left">
								<output> -2.724229097366333 </output>
							</split>
							<split pos="right">
								<feature> 5 </feature>
								<threshold> 6.0 </threshold>
								<split pos="left">
									<feature> 1 </feature>
									<threshold> 167.0 </threshold>
									<split pos="left">
										<output> 1.1707959175109863 </output>
									</split>
									<split pos="right">
										<output> 1.0925484895706177 </output>
									</split>
								</split>
								<split pos="right">
									<output> 0.9094643592834473 </output>
								</split>
							</split>
						</split>
					</split>
					<split pos="right">
						<output> 1.109305739402771 </output>
					</split>
				</split>
				<split pos="right">
					<feature> 5 </feature>
					<threshold> 5.0 </threshold>
					<split pos="left">
						<output> -0.4452531635761261 </output>
					</split>
					<split pos="right">
						<feature> 1 </feature>
						<threshold> 143.0 </threshold>
						<split pos="left">
							<output> 1.0160149335861206 </output>
						</split>
						<split pos="right">
							<output> 0.5597261786460876 </output>
						</split>
					</split>
				</split>
			</split>
		</split>
	</tree>
	<tree id="24" weight="0.1">
		<split>
			<feature> 4 </feature>
			<threshold> 113.0 </threshold>
			<split pos="left">
				<output> -0.5450272560119629 </output>
			</split>
			<split pos="right">
				<feature> 4 </feature>
				<threshold> 118.0 </threshold>
				<split pos="left">
					<feature> 5 </feature>
					<threshold> 25.0 </threshold>
					<split pos="left">
						<feature> 5 </feature>
						<threshold> 2.0 </threshold>
						<split pos="left">
							<output> 0.7464540600776672 </output>
						</split>
						<split pos="right">
							<feature> 2 </feature>
							<threshold> 31.0 </threshold>
							<split pos="left">
								<feature> 5 </feature>
								<threshold> 6.0 </threshold>
								<split pos="left">
									<feature> 1 </feature>
									<threshold> 167.0 </threshold>
									<split pos="left">
										<output> 1.139997959136963 </output>
									</split>
									<split pos="right">
										<output> 1.0668176412582397 </output>
									</split>
								</split>
								<split pos="right">
									<output> 0.8659848570823669 </output>
								</split>
							</split>
							<split pos="right">
								<output> -2.406491994857788 </output>
							</split>
						</split>
					</split>
					<split pos="right">
						<output> 1.0996664762496948 </output>
					</split>
				</split>
				<split pos="right">
					<feature> 5 </feature>
					<threshold> 5.0 </threshold>
					<split pos="left">
						<output> -0.42365625500679016 </output>
					</split>
					<split pos="right">
						<feature> 1 </feature>
						<threshold> 143.0 </threshold>
						<split pos="left">
							<output> 0.9854301810264587 </output>
						</split>
						<split pos="right">
							<output> 0.5063310265541077 </output>
						</split>
					</split>
				</split>
			</split>
		</split>
	</tree>
	<tree id="25" weight="0.1">
		<split>
			<feature> 4 </feature>
			<threshold> 113.0 </threshold>
			<split pos="left">
				<output> -0.5438820123672485 </output>
			</split>
			<split pos="right">
				<feature> 4 </feature>
				<threshold> 118.0 </threshold>
				<split pos="left">
					<feature> 5 </feature>
					<threshold> 25.0 </threshold>
					<split pos="left">
						<feature> 5 </feature>
						<threshold> 0.0 </threshold>
						<split pos="left">
							<output> -2.08374285697937 </output>
						</split>
						<split pos="right">
							<feature> 7 </feature>
							<threshold> 1606.0469 </threshold>
							<split pos="left">
								<output> 0.8879981637001038 </output>
							</split>
							<split pos="right">
								<feature> 5 </feature>
								<threshold> 7.0 </threshold>
								<split pos="left">
									<feature> 5 </feature>
									<threshold> 2.0 </threshold>
									<split pos="left">
										<output> 1.149857759475708 </output>
									</split>
									<split pos="right">
										<output> 1.1037795543670654 </output>
									</split>
								</split>
								<split pos="right">
									<output> -9.7367525100708 </output>
								</split>
							</split>
						</split>
					</split>
					<split pos="right">
						<output> 1.091900110244751 </output>
					</split>
				</split>
				<split pos="right">
					<feature> 5 </feature>
					<threshold> 5.0 </threshold>
					<split pos="left">
						<output> -0.3843879699707031 </output>
					</split>
					<split pos="right">
						<feature> 1 </feature>
						<threshold> 143.0 </threshold>
						<split pos="left">
							<output> 0.9604051113128662 </output>
						</split>
						<split pos="right">
							<output> 0.4491020143032074 </output>
						</split>
					</split>
				</split>
			</split>
		</split>
	</tree>
	<tree id="26" weight="0.1">
		<split>
			<feature> 4 </feature>
			<threshold> 113.0 </threshold>
			<split pos="left">
				<output> -0.4993562400341034 </output>
			</split>
			<split pos="right">
				<feature> 4 </feature>
				<threshold> 118.0 </threshold>
				<split pos="left">
					<feature> 5 </feature>
					<threshold> 25.0 </threshold>
					<split pos="left">
						<feature> 5 </feature>
						<threshold> 0.0 </threshold>
						<split pos="left">
							<output> -1.6358020305633545 </output>
						</split>
						<split pos="right">
							<feature> 4 </feature>
							<threshold> 116.0 </threshold>
							<split pos="left">
								<output> 0.8332586884498596 </output>
							</split>
							<split pos="right">
								<feature> 5 </feature>
								<threshold> 7.0 </threshold>
								<split pos="left">
									<feature> 5 </feature>
									<threshold> 5.0 </threshold>
									<split pos="left">
										<feature> 5 </feature>
										<threshold> 2.0 </threshold>
										<split pos="left">
											<output> 1.1241761445999146 </output>
										</split>
										<split pos="right">
											<output> 1.111986517906189 </output>
										</split>
									</split>
									<split pos="right">
										<output> 1.0407153367996216 </output>
									</split>
								</split>
								<split pos="right">
									<output> -5.040306091308594 </output>
								</split>
							</split>
						</split>
					</split>
					<split pos="right">
						<output> 1.0850367546081543 </output>
					</split>
				</split>
				<split pos="right">
					<feature> 5 </feature>
					<threshold> 5.0 </threshold>
					<split pos="left">
						<output> -0.36714649200439453 </output>
					</split>
					<split pos="right">
						<output> 0.5843848586082458 </output>
					</split>
				</split>
			</split>
		</split>
	</tree>
	<tree id="27" weight="0.1">
		<split>
			<feature> 2 </feature>
			<threshold> 28.0 </threshold>
			<split pos="left">
				<output> -0.7338953614234924 </output>
			</split>
			<split pos="right">
				<feature> 2 </feature>
				<threshold> 31.0 </threshold>
				<split pos="left">
					<feature> 5 </feature>
					<threshold> 2.0 </threshold>
					<split pos="left">
						<feature> 2 </feature>
						<threshold> 30.0 </threshold>
						<split pos="left">
							<output> -0.43660295009613037 </output>
						</split>
						<split pos="right">
							<output> 0.9626343846321106 </output>
						</split>
					</split>
					<split pos="right">
						<feature> 7 </feature>
						<threshold> 4816.1406 </threshold>
						<split pos="left">
							<feature> 4 </feature>
							<threshold> 55.0 </threshold>
							<split pos="left">
								<output> 0.972317636013031 </output>
							</split>
							<split pos="right">
								<feature> 4 </feature>
								<threshold> 154.0 </threshold>
								<split pos="left">
									<feature> 8 </feature>
									<threshold> 0.0 </threshold>
									<split pos="left">
										<output> 1.0628156661987305 </output>
									</split>
									<split pos="right">
										<output> 0.9352971315383911 </output>
									</split>
								</split>
								<split pos="right">
									<output> -0.6077553629875183 </output>
								</split>
							</split>
						</split>
						<split pos="right">
							<output> 1.046111822128296 </output>
						</split>
					</split>
				</split>
				<split pos="right">
					<feature> 12 </feature>
					<threshold> 0.0 </threshold>
					<split pos="left">
						<output> -0.20330272614955902 </output>
					</split>
					<split pos="right">
						<output> 0.7905084490776062 </output>
					</split>
				</split>
			</split>
		</split>
	</tree>
	<tree id="28" weight="0.1">
		<split>
			<feature> 4 </feature>
			<threshold> 113.0 </threshold>
			<split pos="left">
				<output> -0.4969485402107239 </output>
			</split>
			<split pos="right">
				<feature> 1 </feature>
				<threshold> 167.0 </threshold>
				<split pos="left">
					<feature> 5 </feature>
					<threshold> 2.0 </threshold>
					<split pos="left">
						<output> 0.7883588075637817 </output>
					</split>
					<split pos="right">
						<feature> 7 </feature>
						<threshold> 402.26172 </threshold>
						<split pos="left">
							<feature> 5 </feature>
							<threshold> 3.0 </threshold>
							<split pos="left">
								<feature> 8 </feature>
								<threshold> 0.0 </threshold>
								<split pos="left">
									<output> 0.0 </output>
								</split>
								<split pos="right">
									<feature> 8 </feature>
									<threshold> 483.9922 </threshold>
									<split pos="left">
										<output> 1.2560324668884277 </output>
									</split>
									<split pos="right">
										<output> 0.0 </output>
									</split>
								</split>
							</split>
							<split pos="right">
								<output> 0.8671795725822449 </output>
							</split>
						</split>
						<split pos="right">
							<output> 0.9251279830932617 </output>
						</split>
					</split>
				</split>
				<split pos="right">
					<feature> 4 </feature>
					<threshold> 115.0 </threshold>
					<split pos="left">
						<output> 0.8259831666946411 </output>
					</split>
					<split pos="right">
						<feature> 5 </feature>
						<threshold> 9.0 </threshold>
						<split pos="left">
							<output> -0.36184218525886536 </output>
						</split>
						<split pos="right">
							<output> 0.5304836630821228 </output>
						</split>
					</split>
				</split>
			</split>
		</split>
	</tree>
	<tree id="29" weight="0.1">
		<split>
			<feature> 4 </feature>
			<threshold> 113.0 </threshold>
			<split pos="left">
				<output> -0.4622279107570648 </output>
			</split>
			<split pos="right">
				<feature> 1 </feature>
				<threshold> 167.0 </threshold>
				<split pos="left">
					<feature> 5 </feature>
					<threshold> 2.0 </threshold>
					<split pos="left">
						<output> 0.7290781140327454 </output>
					</split>
					<split pos="right">
						<feature> 3 </feature>
						<threshold> 13.0 </threshold>
						<split pos="left">
							<feature> 5 </feature>
							<threshold> 9.0 </threshold>
							<split pos="left">
								<feature> 2 </feature>
								<threshold> 31.0 </threshold>
								<split pos="left">
									<feature> 5 </feature>
									<threshold> 8.0 </threshold>
									<split pos="left">
										<feature> 5 </feature>
										<threshold> 3.0 </threshold>
										<split pos="left">
											<feature> 3 </feature>
											<threshold> 3.0 </threshold>
											<split pos="left">
												<output> -2.4467227458953857 </output>
											</split>
											<split pos="right">
												<output> 1.1590924263000488 </output>
											</split>
										</split>
										<split pos="right">
											<output> 0.8917441964149475 </output>
										</split>
									</split>
									<split pos="right">
										<output> 1.0375925302505493 </output>
									</split>
								</split>
								<split pos="right">
									<output> 1.3190464973449707 </output>
								</split>
							</split>
							<split pos="right">
								<output> -0.6864275932312012 </output>
							</split>
						</split>
						<split pos="right">
							<output> -4.31340217590332 </output>
						</split>
					</split>
				</split>
				<split pos="right">
					<output> 0.08668135851621628 </output>
				</split>
			</split>
		</split>
	</tree>
	<tree id="30" weight="0.1">
		<split>
			<feature> 9 </feature>
			<threshold> 60.0 </threshold>
			<split pos="left">
				<feature> 2 </feature>
				<threshold> 28.0 </threshold>
				<split pos="left">
					<output> -0.7037806510925293 </output>
				</split>
				<split pos="right">
					<feature> 2 </feature>
					<threshold> 31.0 </threshold>
					<split pos="left">
						<feature> 5 </feature>
						<threshold> 2.0 </threshold>
						<split pos="left">
							<output> 0.7633869647979736 </output>
						</split>
						<split pos="right">
							<feature> 4 </feature>
							<threshold> 55.0 </threshold>
							<split pos="left">
								<output> 0.9288763403892517 </output>
							</split>
							<split pos="right">
								<feature> 5 </feature>
								<threshold> 9.0 </threshold>
								<split pos="left">
									<feature> 4 </feature>
									<threshold> 154.0 </threshold>
									<split pos="left">
										<feature> 14 </feature>
										<threshold> 0.0 </threshold>
										<split pos="left">
											<feature> 5 </feature>
											<threshold> 3.0 </threshold>
											<split pos="left">
												<output> 1.126224160194397 </output>
											</split>
											<split pos="right">
												<output> 0.9536997079849243 </output>
											</split>
										</split>
										<split pos="right">
											<output> 0.8852283358573914 </output>
										</split>
									</split>
									<split pos="right">
										<output> -0.45704951882362366 </output>
									</split>
								</split>
								<split pos="right">
									<output> 0.6063767075538635 </output>
								</split>
							</split>
						</split>
					</split>
					<split pos="right">
						<output> -0.08496838063001633 </output>
					</split>
				</split>
			</split>
			<split pos="right">
				<output> 1.2084354162216187 </output>
			</split>
		</split>
	</tree>
	<tree id="31" weight="0.1">
		<split>
			<feature> 9 </feature>
			<threshold> 60.0 </threshold>
			<split pos="left">
				<feature> 2 </feature>
				<threshold> 28.0 </threshold>
				<split pos="left">
					<output> -0.7015731334686279 </output>
				</split>
				<split pos="right">
					<feature> 2 </feature>
					<threshold> 31.0 </threshold>
					<split pos="left">
						<feature> 5 </feature>
						<threshold> 2.0 </threshold>
						<split pos="left">
							<output> 0.6609467267990112 </output>
						</split>
						<split pos="right">
							<feature> 4 </feature>
							<threshold> 55.0 </threshold>
							<split pos="left">
								<output> 0.7947977781295776 </output>
							</split>
							<split pos="right">
								<feature> 5 </feature>
								<threshold> 9.0 </threshold>
								<split pos="left">
									<feature> 4 </feature>
									<threshold> 154.0 </threshold>
									<split pos="left">
										<feature> 14 </feature>
										<threshold> 0.0 </threshold>
										<split pos="left">
											<feature> 5 </feature>
											<threshold> 3.0 </threshold>
											<split pos="left">
												<output> 1.1030834913253784 </output>
											</split>
											<split pos="right">
												<output> 0.9466742873191833 </output>
											</split>
										</split>
										<split pos="right">
											<output> 0.887315571308136 </output>
										</split>
									</split>
									<split pos="right">
										<output> -0.41237005591392517 </output>
									</split>
								</split>
								<split pos="right">
									<output> 0.5462230443954468 </output>
								</split>
							</split>
						</split>
					</split>
					<split pos="right">
						<output> -0.1262744516134262 </output>
					</split>
				</split>
			</split>
			<split pos="right">
				<output> 1.1184840202331543 </output>
			</split>
		</split>
	</tree>
	<tree id="32" weight="0.1">
		<split>
			<feature> 9 </feature>
			<threshold> 60.0 </threshold>
			<split pos="left">
				<feature> 9 </feature>
				<threshold> 24.0 </threshold>
				<split pos="left">
					<feature> 5 </feature>
					<threshold> 2.0 </threshold>
					<split pos="left">
						<output> -0.7097331285476685 </output>
					</split>
					<split pos="right">
						<feature> 4 </feature>
						<threshold> 113.0 </threshold>
						<split pos="left">
							<output> 0.10161785036325455 </output>
						</split>
						<split pos="right">
							<feature> 1 </feature>
							<threshold> 99.0 </threshold>
							<split pos="left">
								<feature> 1 </feature>
								<threshold> 85.0 </threshold>
								<split pos="left">
									<output> -1.3413752317428589 </output>
								</split>
								<split pos="right">
									<feature> 5 </feature>
									<threshold> 4.0 </threshold>
									<split pos="left">
										<output> 1.1160023212432861 </output>
									</split>
									<split pos="right">
										<output> 0.6805979609489441 </output>
									</split>
								</split>
							</split>
							<split pos="right">
								<feature> 4 </feature>
								<threshold> 115.0 </threshold>
								<split pos="left">
									<output> 0.8477115035057068 </output>
								</split>
								<split pos="right">
									<output> 0.3020537197589874 </output>
								</split>
							</split>
						</split>
					</split>
				</split>
				<split pos="right">
					<feature> 9 </feature>
					<threshold> 25.0 </threshold>
					<split pos="left">
						<output> 1.2250877618789673 </output>
					</split>
					<split pos="right">
						<output> 0.6186935305595398 </output>
					</split>
				</split>
			</split>
			<split pos="right">
				<output> 1.0745269060134888 </output>
			</split>
		</split>
	</tree>
	<tree id="33" weight="0.1">
		<split>
			<feature> 9 </feature>
			<threshold> 60.0 </threshold>
			<split pos="left">
				<feature> 9 </feature>
				<threshold> 24.0 </threshold>
				<split pos="left">
					<feature> 5 </feature>
					<threshold> 2.0 </threshold>
					<split pos="left">
						<output> -0.694694995880127 </output>
					</split>
					<split pos="right">
						<feature> 4 </feature>
						<threshold> 113.0 </threshold>
						<split pos="left">
							<output> 0.10471732914447784 </output>
						</split>
						<split pos="right">
							<feature> 1 </feature>
							<threshold> 99.0 </threshold>
							<split pos="left">
								<feature> 3 </feature>
								<threshold> 5.0 </threshold>
								<split pos="left">
									<output> 0.9416492581367493 </output>
								</split>
								<split pos="right">
									<output> -1.2865463495254517 </output>
								</split>
							</split>
							<split pos="right">
								<feature> 4 </feature>
								<threshold> 115.0 </threshold>
								<split pos="left">
									<output> 0.813205897808075 </output>
								</split>
								<split pos="right">
									<output> 0.25491034984588623 </output>
								</split>
							</split>
						</split>
					</split>
				</split>
				<split pos="right">
					<feature> 9 </feature>
					<threshold> 25.0 </threshold>
					<split pos="left">
						<feature> 8 </feature>
						<threshold> 1935.9688 </threshold>
						<split pos="left">
							<output> 1.1720536947250366 </output>
						</split>
						<split pos="right">
							<output> 1.208290696144104 </output>
						</split>
					</split>
					<split pos="right">
						<output> 0.5450398325920105 </output>
					</split>
				</split>
			</split>
			<split pos="right">
				<output> 1.0440006256103516 </output>
			</split>
		</split>
	</tree>
	<tree id="34" weight="0.1">
		<split>
			<feature> 9 </feature>
			<threshold> 60.0 </threshold>
			<split pos="left">
				<feature> 9 </feature>
				<threshold> 24.0 </threshold>
				<split pos="left">
					<feature> 5 </feature>
					<threshold> 2.0 </threshold>
					<split pos="left">
						<output> -0.686168909072876 </output>
					</split>
					<split pos="right">
						<feature> 2 </feature>
						<threshold> 364.0 </threshold>
						<split pos="left">
							<output> 0.31019163131713867 </output>
						</split>
						<split pos="right">
							<output> 1.0090559720993042 </output>
						</split>
					</split>
				</split>
				<split pos="right">
					<feature> 9 </feature>
					<threshold> 25.0 </threshold>
					<split pos="left">
						<feature> 8 </feature>
						<threshold> 1935.9688 </threshold>
						<split pos="left">
							<feature> 5 </feature>
							<threshold> 0.0 </threshold>
							<split pos="left">
								<output> -1.1436594724655151 </output>
							</split>
							<split pos="right">
								<feature> 5 </feature>
								<threshold> 2.0 </threshold>
								<split pos="left">
									<feature> 5 </feature>
									<threshold> 1.0 </threshold>
									<split pos="left">
										<output> 1.229515552520752 </output>
									</split>
									<split pos="right">
										<output> 1.1919137239456177 </output>
									</split>
								</split>
								<split pos="right">
									<output> -0.051095522940158844 </output>
								</split>
							</split>
						</split>
						<split pos="right">
							<output> 1.1842838525772095 </output>
						</split>
					</split>
					<split pos="right">
						<output> 0.423845499753952 </output>
					</split>
				</split>
			</split>
			<split pos="right">
				<output> 0.9986709356307983 </output>
			</split>
		</split>
	</tree>
	<tree id="35" weight="0.1">
		<split>
			<feature> 9 </feature>
			<threshold> 60.0 </threshold>
			<split pos="left">
				<feature> 9 </feature>
				<threshold> 24.0 </threshold>
				<split pos="left">
					<feature> 2 </feature>
					<threshold> 364.0 </threshold>
					<split pos="left">
						<feature> 5 </feature>
						<threshold> 1.0 </threshold>
						<split pos="left">
							<output> -0.7746608853340149 </output>
						</split>
						<split pos="right">
							<feature> 4 </feature>
							<threshold> 105.0 </threshold>
							<split pos="left">
								<output> -0.004646977875381708 </output>
							</split>
							<split pos="right">
								<output> 0.35403648018836975 </output>
							</split>
						</split>
					</split>
					<split pos="right">
						<output> 0.8603930473327637 </output>
					</split>
				</split>
				<split pos="right">
					<feature> 9 </feature>
					<threshold> 25.0 </threshold>
					<split pos="left">
						<feature> 8 </feature>
						<threshold> 1935.9688 </threshold>
						<split pos="left">
							<feature> 5 </feature>
							<threshold> 0.0 </threshold>
							<split pos="left">
								<output> -1.1284363269805908 </output>
							</split>
							<split pos="right">
								<feature> 5 </feature>
								<threshold> 2.0 </threshold>
								<split pos="left">
									<output> 1.1751234531402588 </output>
								</split>
								<split pos="right">
									<output> -2.4250595569610596 </output>
								</split>
							</split>
						</split>
						<split pos="right">
							<output> 1.1529312133789062 </output>
						</split>
					</split>
					<split pos="right">
						<output> 0.3368235230445862 </output>
					</split>
				</split>
			</split>
			<split pos="right">
				<output> 0.9408246874809265 </output>
			</split>
		</split>
	</tree>
	<tree id="36" weight="0.1">
		<split>
			<feature> 9 </feature>
			<threshold> 24.0 </threshold>
			<split pos="left">
				<feature> 2 </feature>
				<threshold> 364.0 </threshold>
				<split pos="left">
					<feature> 4 </feature>
					<threshold> 154.0 </threshold>
					<split pos="left">
						<feature> 4 </feature>
						<threshold> 151.0 </threshold>
						<split pos="left">
							<output> -0.34033045172691345 </output>
						</split>
						<split pos="right">
							<output> 0.8763983845710754 </output>
						</split>
					</split>
					<split pos="right">
						<output> -0.790519654750824 </output>
					</split>
				</split>
				<split pos="right">
					<output> 0.8480250835418701 </output>
				</split>
			</split>
			<split pos="right">
				<feature> 9 </feature>
				<threshold> 25.0 </threshold>
				<split pos="left">
					<feature> 8 </feature>
					<threshold> 1935.9688 </threshold>
					<split pos="left">
						<feature> 5 </feature>
						<threshold> 0.0 </threshold>
						<split pos="left">
							<output> -1.1116400957107544 </output>
						</split>
						<split pos="right">
							<feature> 5 </feature>
							<threshold> 2.0 </threshold>
							<split pos="left">
								<feature> 8 </feature>
								<threshold> 0.0 </threshold>
								<split pos="left">
									<output> 1.1821143627166748 </output>
								</split>
								<split pos="right">
									<output> 1.141300082206726 </output>
								</split>
							</split>
							<split pos="right">
								<output> -0.6872385144233704 </output>
							</split>
						</split>
					</split>
					<split pos="right">
						<output> 1.1255290508270264 </output>
					</split>
				</split>
				<split pos="right">
					<output> 0.5551342964172363 </output>
				</split>
			</split>
		</split>
	</tree>
	<tree id="37" weight="0.1">
		<split>
			<feature> 9 </feature>
			<threshold> 24.0 </threshold>
			<split pos="left">
				<feature> 2 </feature>
				<threshold> 364.0 </threshold>
				<split pos="left">
					<feature> 5 </feature>
					<threshold> 1.0 </threshold>
					<split pos="left">
						<output> -0.7473297715187073 </output>
					</split>
					<split pos="right">
						<feature> 4 </feature>
						<threshold> 105.0 </threshold>
						<split pos="left">
							<output> -0.01883949153125286 </output>
						</split>
						<split pos="right">
							<feature> 1 </feature>
							<threshold> 102.0 </threshold>
							<split pos="left">
								<output> 0.854755699634552 </output>
							</split>
							<split pos="right">
								<output> -0.027429109439253807 </output>
							</split>
						</split>
					</split>
				</split>
				<split pos="right">
					<output> 0.7362751960754395 </output>
				</split>
			</split>
			<split pos="right">
				<feature> 9 </feature>
				<threshold> 25.0 </threshold>
				<split pos="left">
					<feature> 8 </feature>
					<threshold> 1935.9688 </threshold>
					<split pos="left">
						<feature> 5 </feature>
						<threshold> 0.0 </threshold>
						<split pos="left">
							<output> -1.098679542541504 </output>
						</split>
						<split pos="right">
							<feature> 5 </feature>
							<threshold> 2.0 </threshold>
							<split pos="left">
								<output> 1.1203880310058594 </output>
							</split>
							<split pos="right">
								<output> -0.630754292011261 </output>
							</split>
						</split>
					</split>
					<split pos="right">
						<output> 1.1070072650909424 </output>
					</split>
				</split>
				<split pos="right">
					<output> 0.5474390387535095 </output>
				</split>
			</split>
		</split>
	</tree>
	<tree id="38" weight="0.1">
		<split>
			<feature> 9 </feature>
			<threshold> 60.0 </threshold>
			<split pos="left">
				<feature> 9 </feature>
				<threshold> 24.0 </threshold>
				<split pos="left">
					<feature> 4 </feature>
					<threshold> 1612.0 </threshold>
					<split pos="left">
						<feature> 4 </feature>
						<threshold> 154.0 </threshold>
						<split pos="left">
							<feature> 4 </feature>
							<threshold> 151.0 </threshold>
							<split pos="left">
								<feature> 4 </feature>
								<threshold> 50.0 </threshold>
								<split pos="left">
									<output> -0.6311035752296448 </output>
								</split>
								<split pos="right">
									<feature> 1 </feature>
									<threshold> 25.0 </threshold>
									<split pos="left">
										<output> 0.7693201303482056 </output>
									</split>
									<split pos="right">
										<output> 0.12504705786705017 </output>
									</split>
								</split>
							</split>
							<split pos="right">
								<output> 0.8101478815078735 </output>
							</split>
						</split>
						<split pos="right">
							<output> -0.9962442517280579 </output>
						</split>
					</split>
					<split pos="right">
						<output> 0.7393715977668762 </output>
					</split>
				</split>
				<split pos="right">
					<feature> 9 </feature>
					<threshold> 25.0 </threshold>
					<split pos="left">
						<feature> 8 </feature>
						<threshold> 1935.9688 </threshold>
						<split pos="left">
							<output> 1.0628787279129028 </output>
						</split>
						<split pos="right">
							<output> 1.0867201089859009 </output>
						</split>
					</split>
					<split pos="right">
						<output> 0.3407663404941559 </output>
					</split>
				</split>
			</split>
			<split pos="right">
				<output> 0.8354907631874084 </output>
			</split>
		</split>
	</tree>
	<tree id="39" weight="0.1">
		<split>
			<feature> 9 </feature>
			<threshold> 24.0 </threshold>
			<split pos="left">
				<feature> 2 </feature>
				<threshold> 364.0 </threshold>
				<split pos="left">
					<feature> 4 </feature>
					<threshold> 154.0 </threshold>
					<split pos="left">
						<feature> 4 </feature>
						<threshold> 151.0 </threshold>
						<split pos="left">
							<feature> 5 </feature>
							<threshold> 4.0 </threshold>
							<split pos="left">
								<output> -0.5109663009643555 </output>
							</split>
							<split pos="right">
								<output> 0.5008522272109985 </output>
							</split>
						</split>
						<split pos="right">
							<output> 0.7765073180198669 </output>
						</split>
					</split>
					<split pos="right">
						<output> -0.801535427570343 </output>
					</split>
				</split>
				<split pos="right">
					<output> 0.6356284618377686 </output>
				</split>
			</split>
			<split pos="right">
				<feature> 9 </feature>
				<threshold> 25.0 </threshold>
				<split pos="left">
					<feature> 8 </feature>
					<threshold> 1935.9688 </threshold>
					<split pos="left">
						<output> 1.035056471824646 </output>
					</split>
					<split pos="right">
						<output> 1.0709749460220337 </output>
					</split>
				</split>
				<split pos="right">
					<feature> 5 </feature>
					<threshold> 0.0 </threshold>
					<split pos="left">
						<output> -1.7044817209243774 </output>
					</split>
					<split pos="right">
						<feature> 9 </feature>
						<threshold> 60.0 </threshold>
						<split pos="left">
							<output> 0.5612061023712158 </output>
						</split>
						<split pos="right">
							<output> 0.9309501647949219 </output>
						</split>
					</split>
				</split>
			</split>
		</split>
	</tree>
	<tree id="40" weight="0.1">
		<split>
			<feature> 9 </feature>
			<threshold> 24.0 </threshold>
			<split pos="left">
				<feature> 4 </feature>
				<threshold> 1612.0 </threshold>
				<split pos="left">
					<feature> 4 </feature>
					<threshold> 154.0 </threshold>
					<split pos="left">
						<feature> 4 </feature>
						<threshold> 151.0 </threshold>
						<split pos="left">
							<feature> 2 </feature>
							<threshold> 28.0 </threshold>
							<split pos="left">
								<output> -0.5843831300735474 </output>
							</split>
							<split pos="right">
								<feature> 2 </feature>
								<threshold> 31.0 </threshold>
								<split pos="left">
									<output> 0.5881394743919373 </output>
								</split>
								<split pos="right">
									<output> -0.06714078038930893 </output>
								</split>
							</split>
						</split>
						<split pos="right">
							<output> 0.725675642490387 </output>
						</split>
					</split>
					<split pos="right">
						<output> -0.8649775981903076 </output>
					</split>
				</split>
				<split pos="right">
					<output> 0.6172963976860046 </output>
				</split>
			</split>
			<split pos="right">
				<feature> 9 </feature>
				<threshold> 25.0 </threshold>
				<split pos="left">
					<feature> 8 </feature>
					<threshold> 1935.9688 </threshold>
					<split pos="left">
						<output> 0.9969832897186279 </output>
					</split>
					<split pos="right">
						<output> 1.0497024059295654 </output>
					</split>
				</split>
				<split pos="right">
					<feature> 5 </feature>
					<threshold> 0.0 </threshold>
					<split pos="left">
						<output> -1.5616894960403442 </output>
					</split>
					<split pos="right">
						<output> 0.6419139504432678 </output>
					</split>
				</split>
			</split>
		</split>
	</tree>
	<tree id="41" weight="0.1">
		<split>
			<feature> 9 </feature>
			<threshold> 24.0 </threshold>
			<split pos="left">
				<feature> 4 </feature>
				<threshold> 1612.0 </threshold>
				<split pos="left">
					<feature> 1 </feature>
					<threshold> 233.0 </threshold>
					<split pos="left">
						<feature> 1 </feature>
						<threshold> 212.0 </threshold>
						<split pos="left">
							<feature> 4 </feature>
							<threshold> 151.0 </threshold>
							<split pos="left">
								<feature> 2 </feature>
								<threshold> 29.0 </threshold>
								<split pos="left">
									<output> -0.5727790594100952 </output>
								</split>
								<split pos="right">
									<output> 0.2889734208583832 </output>
								</split>
							</split>
							<split pos="right">
								<output> 0.5169739127159119 </output>
							</split>
						</split>
						<split pos="right">
							<output> 1.1840556859970093 </output>
						</split>
					</split>
					<split pos="right">
						<output> -0.5739493370056152 </output>
					</split>
				</split>
				<split pos="right">
					<output> 0.5859881043434143 </output>
				</split>
			</split>
			<split pos="right">
				<feature> 9 </feature>
				<threshold> 25.0 </threshold>
				<split pos="left">
					<feature> 8 </feature>
					<threshold> 1935.9688 </threshold>
					<split pos="left">
						<output> 0.9727537631988525 </output>
					</split>
					<split pos="right">
						<output> 1.0339771509170532 </output>
					</split>
				</split>
				<split pos="right">
					<feature> 9 </feature>
					<threshold> 60.0 </threshold>
					<split pos="left">
						<output> 0.22773918509483337 </output>
					</split>
					<split pos="right">
						<output> 0.7828876376152039 </output>
					</split>
				</split>
			</split>
		</split>
	</tree>
	<tree id="42" weight="0.1">
		<split>
			<feature> 9 </feature>
			<threshold> 24.0 </threshold>
			<split pos="left">
				<feature> 4 </feature>
				<threshold> 1612.0 </threshold>
				<split pos="left">
					<feature> 5 </feature>
					<threshold> 1.0 </threshold>
					<split pos="left">
						<output> -0.6492602229118347 </output>
					</split>
					<split pos="right">
						<feature> 7 </feature>
						<threshold> 52165.023 </threshold>
						<split pos="left">
							<feature> 12 </feature>
							<threshold> 0.0 </threshold>
							<split pos="left">
								<feature> 1 </feature>
								<threshold> 1355.0 </threshold>
								<split pos="left">
									<feature> 1 </feature>
									<threshold> 968.0 </threshold>
									<split pos="left">
										<feature> 1 </feature>
										<threshold> 143.0 </threshold>
										<split pos="left">
											<output> 0.268274188041687 </output>
										</split>
										<split pos="right">
											<output> -0.8918668627738953 </output>
										</split>
									</split>
									<split pos="right">
										<output> 0.581483006477356 </output>
									</split>
								</split>
								<split pos="right">
									<output> -2.51080060005188 </output>
								</split>
							</split>
							<split pos="right">
								<output> 0.818651020526886 </output>
							</split>
						</split>
						<split pos="right">
							<output> 15.510251998901367 </output>
						</split>
					</split>
				</split>
				<split pos="right">
					<output> 0.5334405899047852 </output>
				</split>
			</split>
			<split pos="right">
				<feature> 9 </feature>
				<threshold> 25.0 </threshold>
				<split pos="left">
					<output> 0.9505322575569153 </output>
				</split>
				<split pos="right">
					<output> 0.35753321647644043 </output>
				</split>
			</split>
		</split>
	</tree>
	<tree id="43" weight="0.1">
		<split>
			<feature> 9 </feature>
			<threshold> 24.0 </threshold>
			<split pos="left">
				<feature> 4 </feature>
				<threshold> 1612.0 </threshold>
				<split pos="left">
					<feature> 5 </feature>
					<threshold> 0.0 </threshold>
					<split pos="left">
						<output> -0.9326882362365723 </output>
					</split>
					<split pos="right">
						<feature> 8 </feature>
						<threshold> 5807.9062 </threshold>
						<split pos="left">
							<feature> 2 </feature>
							<threshold> 28.0 </threshold>
							<split pos="left">
								<output> -0.1393326371908188 </output>
							</split>
							<split pos="right">
								<feature> 2 </feature>
								<threshold> 31.0 </threshold>
								<split pos="left">
									<feature> 8 </feature>
									<threshold> 0.0 </threshold>
									<split pos="left">
										<output> 0.9478035569190979 </output>
									</split>
									<split pos="right">
										<feature> 4 </feature>
										<threshold> 47.0 </threshold>
										<split pos="left">
											<output> 0.12538433074951172 </output>
										</split>
										<split pos="right">
											<output> 0.5839807987213135 </output>
										</split>
									</split>
								</split>
								<split pos="right">
									<output> -0.05278009548783302 </output>
								</split>
							</split>
						</split>
						<split pos="right">
							<output> 0.7042401432991028 </output>
						</split>
					</split>
				</split>
				<split pos="right">
					<output> 0.48941659927368164 </output>
				</split>
			</split>
			<split pos="right">
				<feature> 9 </feature>
				<threshold> 25.0 </threshold>
				<split pos="left">
					<output> 0.9087375998497009 </output>
				</split>
				<split pos="right">
					<output> 0.29292985796928406 </output>
				</split>
			</split>
		</split>
	</tree>
	<tree id="44" weight="0.1">
		<split>
			<feature> 9 </feature>
			<threshold> 60.0 </threshold>
			<split pos="left">
				<feature> 4 </feature>
				<threshold> 1612.0 </threshold>
				<split pos="left">
					<feature> 9 </feature>
					<threshold> 24.0 </threshold>
					<split pos="left">
						<feature> 7 </feature>
						<threshold> 52165.023 </threshold>
						<split pos="left">
							<feature> 8 </feature>
							<threshold> 5807.9062 </threshold>
							<split pos="left">
								<feature> 5 </feature>
								<threshold> 0.0 </threshold>
								<split pos="left">
									<output> -0.9099760055541992 </output>
								</split>
								<split pos="right">
									<feature> 4 </feature>
									<threshold> 20.0 </threshold>
									<split pos="left">
										<output> -0.30439072847366333 </output>
									</split>
									<split pos="right">
										<feature> 3 </feature>
										<threshold> 6.0 </threshold>
										<split pos="left">
											<feature> 4 </feature>
											<threshold> 144.0 </threshold>
											<split pos="left">
												<output> 0.6744725108146667 </output>
											</split>
											<split pos="right">
												<output> 0.5986950397491455 </output>
											</split>
										</split>
										<split pos="right">
											<output> -0.07410933822393417 </output>
										</split>
									</split>
								</split>
							</split>
							<split pos="right">
								<output> -1.1371203660964966 </output>
							</split>
						</split>
						<split pos="right">
							<output> 1.59489905834198 </output>
						</split>
					</split>
					<split pos="right">
						<output> 0.35875770449638367 </output>
					</split>
				</split>
				<split pos="right">
					<output> 0.5294069051742554 </output>
				</split>
			</split>
			<split pos="right">
				<output> 0.6637151837348938 </output>
			</split>
		</split>
	</tree>
	<tree id="45" weight="0.1">
		<split>
			<feature> 9 </feature>
			<threshold> 60.0 </threshold>
			<split pos="left">
				<feature> 4 </feature>
				<threshold> 1612.0 </threshold>
				<split pos="left">
					<feature> 10 </feature>
					<threshold> 5.0 </threshold>
					<split pos="left">
						<feature> 9 </feature>
						<threshold> 24.0 </threshold>
						<split pos="left">
							<feature> 5 </feature>
							<threshold> 3.0 </threshold>
							<split pos="left">
								<feature> 8 </feature>
								<threshold> 1935.9688 </threshold>
								<split pos="left">
									<feature> 1 </feature>
									<threshold> 107.0 </threshold>
									<split pos="left">
										<feature> 4 </feature>
										<threshold> 53.0 </threshold>
										<split pos="left">
											<output> -0.6096234917640686 </output>
										</split>
										<split pos="right">
											<feature> 5 </feature>
											<threshold> 2.0 </threshold>
											<split pos="left">
												<output> 0.46273940801620483 </output>
											</split>
											<split pos="right">
												<output> 0.7446871995925903 </output>
											</split>
										</split>
									</split>
									<split pos="right">
										<output> -0.9930893778800964 </output>
									</split>
								</split>
								<split pos="right">
									<output> -0.9643089175224304 </output>
								</split>
							</split>
							<split pos="right">
								<output> 0.2869681119918823 </output>
							</split>
						</split>
						<split pos="right">
							<output> 0.47072550654411316 </output>
						</split>
					</split>
					<split pos="right">
						<output> -5.362006187438965 </output>
					</split>
				</split>
				<split pos="right">
					<output> 0.4771079421043396 </output>
				</split>
			</split>
			<split pos="right">
				<output> 0.6147717237472534 </output>
			</split>
		</split>
	</tree>
	<tree id="46" weight="0.1">
		<split>
			<feature> 9 </feature>
			<threshold> 24.0 </threshold>
			<split pos="left">
				<feature> 5 </feature>
				<threshold> 1.0 </threshold>
				<split pos="left">
					<output> -0.6148331165313721 </output>
				</split>
				<split pos="right">
					<feature> 4 </feature>
					<threshold> 1612.0 </threshold>
					<split pos="left">
						<feature> 8 </feature>
						<threshold> 3871.9375 </threshold>
						<split pos="left">
							<feature> 12 </feature>
							<threshold> 0.0 </threshold>
							<split pos="left">
								<feature> 2 </feature>
								<threshold> 34.0 </threshold>
								<split pos="left">
									<feature> 2 </feature>
									<threshold> 28.0 </threshold>
									<split pos="left">
										<output> 0.16664960980415344 </output>
									</split>
									<split pos="right">
										<output> 0.49698641896247864 </output>
									</split>
								</split>
								<split pos="right">
									<output> -0.509644091129303 </output>
								</split>
							</split>
							<split pos="right">
								<output> 0.7715368866920471 </output>
							</split>
						</split>
						<split pos="right">
							<output> 0.8868903517723083 </output>
						</split>
					</split>
					<split pos="right">
						<output> 0.555654764175415 </output>
					</split>
				</split>
			</split>
			<split pos="right">
				<feature> 9 </feature>
				<threshold> 25.0 </threshold>
				<split pos="left">
					<feature> 8 </feature>
					<threshold> 1935.9688 </threshold>
					<split pos="left">
						<output> 0.8343080282211304 </output>
					</split>
					<split pos="right">
						<output> 0.9403935074806213 </output>
					</split>
				</split>
				<split pos="right">
					<output> 0.1798444539308548 </output>
				</split>
			</split>
		</split>
	</tree>
	<tree id="47" weight="0.1">
		<split>
			<feature> 9 </feature>
			<threshold> 24.0 </threshold>
			<split pos="left">
				<feature> 5 </feature>
				<threshold> 1.0 </threshold>
				<split pos="left">
					<output> -0.5711328983306885 </output>
				</split>
				<split pos="right">
					<feature> 4 </feature>
					<threshold> 1612.0 </threshold>
					<split pos="left">
						<feature> 8 </feature>
						<threshold> 3871.9375 </threshold>
						<split pos="left">
							<feature> 7 </feature>
							<threshold> 52165.023 </threshold>
							<split pos="left">
								<feature> 4 </feature>
								<threshold> 154.0 </threshold>
								<split pos="left">
									<feature> 4 </feature>
									<threshold> 151.0 </threshold>
									<split pos="left">
										<feature> 9 </feature>
										<threshold> 5.0 </threshold>
										<split pos="left">
											<output> 0.005659789778292179 </output>
										</split>
										<split pos="right">
											<output> 0.7228423357009888 </output>
										</split>
									</split>
									<split pos="right">
										<output> 0.49022963643074036 </output>
									</split>
								</split>
								<split pos="right">
									<output> -0.5248276591300964 </output>
								</split>
							</split>
							<split pos="right">
								<output> 3.786639451980591 </output>
							</split>
						</split>
						<split pos="right">
							<output> 0.8681159615516663 </output>
						</split>
					</split>
					<split pos="right">
						<output> 0.5087213516235352 </output>
					</split>
				</split>
			</split>
			<split pos="right">
				<feature> 9 </feature>
				<threshold> 25.0 </threshold>
				<split pos="left">
					<output> 0.8096087574958801 </output>
				</split>
				<split pos="right">
					<output> 0.09801528602838516 </output>
				</split>
			</split>
		</split>
	</tree>
	<tree id="48" weight="0.1">
		<split>
			<feature> 9 </feature>
			<threshold> 60.0 </threshold>
			<split pos="left">
				<feature> 4 </feature>
				<threshold> 484.0 </threshold>
				<split pos="left">
					<feature> 9 </feature>
					<threshold> 40.0 </threshold>
					<split pos="left">
						<feature> 5 </feature>
						<threshold> 1.0 </threshold>
						<split pos="left">
							<output> -0.5319556593894958 </output>
						</split>
						<split pos="right">
							<feature> 8 </feature>
							<threshold> 3871.9375 </threshold>
							<split pos="left">
								<feature> 7 </feature>
								<threshold> 5217.4023 </threshold>
								<split pos="left">
									<feature> 1 </feature>
									<threshold> 951.0 </threshold>
									<split pos="left">
										<feature> 1 </feature>
										<threshold> 242.0 </threshold>
										<split pos="left">
											<output> 0.2450207620859146 </output>
										</split>
										<split pos="right">
											<output> -1.540908932685852 </output>
										</split>
									</split>
									<split pos="right">
										<output> 0.3509591817855835 </output>
									</split>
								</split>
								<split pos="right">
									<output> 0.7473235726356506 </output>
								</split>
							</split>
							<split pos="right">
								<output> 0.8266566395759583 </output>
							</split>
						</split>
					</split>
					<split pos="right">
						<output> -3.143350601196289 </output>
					</split>
				</split>
				<split pos="right">
					<feature> 2 </feature>
					<threshold> 30.0 </threshold>
					<split pos="left">
						<output> 0.7604784965515137 </output>
					</split>
					<split pos="right">
						<output> 0.11093650013208389 </output>
					</split>
				</split>
			</split>
			<split pos="right">
				<output> 0.48724591732025146 </output>
			</split>
		</split>
	</tree>
	<tree id="49" weight="0.1">
		<split>
			<feature> 9 </feature>
			<threshold> 24.0 </threshold>
			<split pos="left">
				<feature> 2 </feature>
				<threshold> 374.0 </threshold>
				<split pos="left">
					<feature> 2 </feature>
					<threshold> 364.0 </threshold>
					<split pos="left">
						<feature> 5 </feature>
						<threshold> 0.0 </threshold>
						<split pos="left">
							<output> -0.8377404808998108 </output>
						</split>
						<split pos="right">
							<feature> 8 </feature>
							<threshold> 5807.9062 </threshold>
							<split pos="left">
								<feature> 4 </feature>
								<threshold> 20.0 </threshold>
								<split pos="left">
									<output> -0.1260680854320526 </output>
								</split>
								<split pos="right">
									<feature> 12 </feature>
									<threshold> 0.0 </threshold>
									<split pos="left">
										<feature> 3 </feature>
										<threshold> 5.0 </threshold>
										<split pos="left">
											<output> 0.5482887029647827 </output>
										</split>
										<split pos="right">
											<output> -0.0847243070602417 </output>
										</split>
									</split>
									<split pos="right">
										<output> 0.6525657773017883 </output>
									</split>
								</split>
							</split>
							<split pos="right">
								<output> 0.5945839881896973 </output>
							</split>
						</split>
					</split>
					<split pos="right">
						<output> 0.6511402130126953 </output>
					</split>
				</split>
				<split pos="right">
					<output> -2.2492566108703613 </output>
				</split>
			</split>
			<split pos="right">
				<feature> 9 </feature>
				<threshold> 25.0 </threshold>
				<split pos="left">
					<output> 0.7107377648353577 </output>
				</split>
				<split pos="right">
					<output> 0.1757797747850418 </output>
				</split>
			</split>
		</split>
	</tree>
	<tree id="50" weight="0.1">
		<split>
			<feature> 9 </feature>
			<threshold> 60.0 </threshold>
			<split pos="left">
				<feature> 4 </feature>
				<threshold> 1612.0 </threshold>
				<split pos="left">
					<feature> 9 </feature>
					<threshold> 29.0 </threshold>
					<split pos="left">
						<feature> 9 </feature>
						<threshold> 24.0 </threshold>
						<split pos="left">
							<feature> 7 </feature>
							<threshold> 52165.023 </threshold>
							<split pos="left">
								<feature> 4 </feature>
								<threshold> 127.0 </threshold>
								<split pos="left">
									<feature> 4 </feature>
									<threshold> 126.0 </threshold>
									<split pos="left">
										<feature> 4 </feature>
										<threshold> 14.0 </threshold>
										<split pos="left">
											<output> -0.4973580241203308 </output>
										</split>
										<split pos="right">
											<feature> 2 </feature>
											<threshold> 4.0 </threshold>
											<split pos="left">
												<output> 0.9191012382507324 </output>
											</split>
											<split pos="right">
												<output> 0.3122245669364929 </output>
											</split>
										</split>
									</split>
									<split pos="right">
										<output> 0.8737207055091858 </output>
									</split>
								</split>
								<split pos="right">
									<output> -0.3725579082965851 </output>
								</split>
							</split>
							<split pos="right">
								<output> 1.2559574842453003 </output>
							</split>
						</split>
						<split pos="right">
							<output> 0.48010510206222534 </output>
						</split>
					</split>
					<split pos="right">
						<output> -1.8156366348266602 </output>
					</split>
				</split>
				<split pos="right">
					<output> 0.36985498666763306 </output>
				</split>
			</split>
			<split pos="right">
				<output> 0.4001854658126831 </output>
			</split>
		</split>
	</tree>
	<tree id="51" weight="0.1">
		<split>
			<feature> 9 </feature>
			<threshold> 24.0 </threshold>
			<split pos="left">
				<feature> 5 </feature>
				<threshold> 2.0 </threshold>
				<split pos="left">
					<output> -0.41432011127471924 </output>
				</split>
				<split pos="right">
					<feature> 4 </feature>
					<threshold> 1612.0 </threshold>
					<split pos="left">
						<feature> 7 </feature>
						<threshold> 52165.023 </threshold>
						<split pos="left">
							<feature> 1 </feature>
							<threshold> 1355.0 </threshold>
							<split pos="left">
								<feature> 1 </feature>
								<threshold> 968.0 </threshold>
								<split pos="left">
									<feature> 4 </feature>
									<threshold> 356.0 </threshold>
									<split pos="left">
										<feature> 4 </feature>
										<threshold> 297.0 </threshold>
										<split pos="left">
											<output> 0.1258264183998108 </output>
										</split>
										<split pos="right">
											<output> 0.8838847279548645 </output>
										</split>
									</split>
									<split pos="right">
										<output> -3.718817949295044 </output>
									</split>
								</split>
								<split pos="right">
									<output> 0.4419522285461426 </output>
								</split>
							</split>
							<split pos="right">
								<output> -2.114067316055298 </output>
							</split>
						</split>
						<split pos="right">
							<output> 1.2291747331619263 </output>
						</split>
					</split>
					<split pos="right">
						<output> 0.47047528624534607 </output>
					</split>
				</split>
			</split>
			<split pos="right">
				<feature> 9 </feature>
				<threshold> 25.0 </threshold>
				<split pos="left">
					<output> 0.6165403127670288 </output>
				</split>
				<split pos="right">
					<output> 0.1050473302602768 </output>
				</split>
			</split>
		</split>
	</tree>
	<tree id="52" weight="0.1">
		<split>
			<feature> 5 </feature>
			<threshold> 0.0 </threshold>
			<split pos="left">
				<output> -0.9072049856185913 </output>
			</split>
			<split pos="right">
				<feature> 9 </feature>
				<threshold> 60.0 </threshold>
				<split pos="left">
					<feature> 9 </feature>
					<threshold> 24.0 </threshold>
					<split pos="left">
						<feature> 7 </feature>
						<threshold> 52165.023 </threshold>
						<split pos="left">
							<feature> 4 </feature>
							<threshold> 1612.0 </threshold>
							<split pos="left">
								<feature> 10 </feature>
								<threshold> 2.0 </threshold>
								<split pos="left">
									<feature> 4 </feature>
									<threshold> 127.0 </threshold>
									<split pos="left">
										<feature> 4 </feature>
										<threshold> 126.0 </threshold>
										<split pos="left">
											<feature> 4 </feature>
											<threshold> 20.0 </threshold>
											<split pos="left">
												<output> -0.09659317880868912 </output>
											</split>
											<split pos="right">
												<output> 0.45816221833229065 </output>
											</split>
										</split>
										<split pos="right">
											<output> 0.9130067825317383 </output>
										</split>
									</split>
									<split pos="right">
										<output> -0.30303213000297546 </output>
									</split>
								</split>
								<split pos="right">
									<output> 1.1719616651535034 </output>
								</split>
							</split>
							<split pos="right">
								<output> 0.38047733902931213 </output>
							</split>
						</split>
						<split pos="right">
							<output> 0.8336848616600037 </output>
						</split>
					</split>
					<split pos="right">
						<output> 0.42289718985557556 </output>
					</split>
				</split>
				<split pos="right">
					<output> 0.6118977665901184 </output>
				</split>
			</split>
		</split>
	</tree>
	<tree id="53" weight="0.1">
		<split>
			<feature> 5 </feature>
			<threshold> 0.0 </threshold>
			<split pos="left">
				<output> -0.8750564455986023 </output>
			</split>
			<split pos="right">
				<feature> 9 </feature>
				<threshold> 60.0 </threshold>
				<split pos="left">
					<feature> 9 </feature>
					<threshold> 24.0 </threshold>
					<split pos="left">
						<feature> 4 </feature>
						<threshold> 1861.0 </threshold>
						<split pos="left">
							<feature> 4 </feature>
							<threshold> 1612.0 </threshold>
							<split pos="left">
								<feature> 7 </feature>
								<threshold> 52165.023 </threshold>
								<split pos="left">
									<feature> 10 </feature>
									<threshold> 2.0 </threshold>
									<split pos="left">
										<feature> 4 </feature>
										<threshold> 127.0 </threshold>
										<split pos="left">
											<feature> 4 </feature>
											<threshold> 126.0 </threshold>
											<split pos="left">
												<output> 0.17840956151485443 </output>
											</split>
											<split pos="right">
												<output> 0.8928610682487488 </output>
											</split>
										</split>
										<split pos="right">
											<output> -0.2646445333957672 </output>
										</split>
									</split>
									<split pos="right">
										<output> 1.0137251615524292 </output>
									</split>
								</split>
								<split pos="right">
									<output> 0.9863919019699097 </output>
								</split>
							</split>
							<split pos="right">
								<output> 0.5786796808242798 </output>
							</split>
						</split>
						<split pos="right">
							<output> -1.6900709867477417 </output>
						</split>
					</split>
					<split pos="right">
						<output> 0.3847578167915344 </output>
					</split>
				</split>
				<split pos="right">
					<output> 0.5675380825996399 </output>
				</split>
			</split>
		</split>
	</tree>
	<tree id="54" weight="0.1">
		<split>
			<feature> 4 </feature>
			<threshold> 297.0 </threshold>
			<split pos="left">
				<feature> 7 </feature>
				<threshold> 52165.023 </threshold>
				<split pos="left">
					<feature> 8 </feature>
					<threshold> 5807.9062 </threshold>
					<split pos="left">
						<feature> 4 </feature>
						<threshold> 127.0 </threshold>
						<split pos="left">
							<feature> 4 </feature>
							<threshold> 126.0 </threshold>
							<split pos="left">
								<feature> 4 </feature>
								<threshold> 14.0 </threshold>
								<split pos="left">
									<output> -0.40537649393081665 </output>
								</split>
								<split pos="right">
									<feature> 2 </feature>
									<threshold> 4.0 </threshold>
									<split pos="left">
										<output> 0.8553212285041809 </output>
									</split>
									<split pos="right">
										<feature> 5 </feature>
										<threshold> 25.0 </threshold>
										<split pos="left">
											<output> 0.18894465267658234 </output>
										</split>
										<split pos="right">
											<output> 1.2098511457443237 </output>
										</split>
									</split>
								</split>
							</split>
							<split pos="right">
								<output> 0.7811072468757629 </output>
							</split>
						</split>
						<split pos="right">
							<output> -0.5297536253929138 </output>
						</split>
					</split>
					<split pos="right">
						<output> -1.0847699642181396 </output>
					</split>
				</split>
				<split pos="right">
					<output> 0.9241278171539307 </output>
				</split>
			</split>
			<split pos="right">
				<feature> 2 </feature>
				<threshold> 30.0 </threshold>
				<split pos="left">
					<output> 0.5514311790466309 </output>
				</split>
				<split pos="right">
					<output> 0.1521022617816925 </output>
				</split>
			</split>
		</split>
	</tree>
	<tree id="55" weight="0.1">
		<split>
			<feature> 7 </feature>
			<threshold> 84667.41 </threshold>
			<split pos="left">
				<feature> 4 </feature>
				<threshold> 297.0 </threshold>
				<split pos="left">
					<feature> 7 </feature>
