## MART
## No. of trees = 1000
## No. of leaves = 10
## No. of threshold candidates = 256
## Learning rate = 0.1
## Stop early = 100

<ensemble>
	<tree id="1" weight="0.1">
		<split>
			<feature> 5 </feature>
			<threshold> 2.0 </threshold>
			<split pos="left">
				<feature> 9 </feature>
				<threshold> 24.0 </threshold>
				<split pos="left">
					<feature> 5 </feature>
					<threshold> 0.0 </threshold>
					<split pos="left">
						<output> 1.834759495977778E-5 </output>
					</split>
					<split pos="right">
						<feature> 4 </feature>
						<threshold> 20.0 </threshold>
						<split pos="left">
							<output> 8.613087993580848E-5 </output>
						</split>
						<split pos="right">
							<output> 4.350108793005347E-4 </output>
						</split>
					</split>
				</split>
				<split pos="right">
					<output> 6.517905276268721E-4 </output>
				</split>
			</split>
			<split pos="right">
				<feature> 4 </feature>
				<threshold> 1612.0 </threshold>
				<split pos="left">
					<feature> 7 </feature>
					<threshold> 52165.023 </threshold>
					<split pos="left">
						<feature> 4 </feature>
						<threshold> 26.0 </threshold>
						<split pos="left">
							<feature> 6 </feature>
							<threshold> 0.0 </threshold>
							<split pos="left">
								<output> 2.3173140652943403E-4 </output>
							</split>
							<split pos="right">
								<output> 8.426374406553805E-4 </output>
							</split>
						</split>
						<split pos="right">
							<feature> 3 </feature>
							<threshold> 5.0 </threshold>
							<split pos="left">
								<output> 0.003655219217762351 </output>
							</split>
							<split pos="right">
								<output> 0.001214998192153871 </output>
							</split>
						</split>
					</split>
					<split pos="right">
						<output> 0.012139605358242989 </output>
					</split>
				</split>
				<split pos="right">
					<output> 0.008661417290568352 </output>
				</split>
			</split>
		</split>
	</tree>
	<tree id="2" weight="0.1">
		<split>
			<feature> 5 </feature>
			<threshold> 5.0 </threshold>
			<split pos="left">
				<feature> 5 </feature>
				<threshold> 0.0 </threshold>
				<split pos="left">
					<output> 1.4858440408715978E-5 </output>
				</split>
				<split pos="right">
					<feature> 9 </feature>
					<threshold> 24.0 </threshold>
					<split pos="left">
						<feature> 7 </feature>
						<threshold> 52165.023 </threshold>
						<split pos="left">
							<feature> 4 </feature>
							<threshold> 26.0 </threshold>
							<split pos="left">
								<output> 1.0073246812680736E-4 </output>
							</split>
							<split pos="right">
								<output> 5.070948973298073E-4 </output>
							</split>
						</split>
						<split pos="right">
							<output> 0.002540086628869176 </output>
						</split>
					</split>
					<split pos="right">
						<output> 0.0030002763960510492 </output>
					</split>
				</split>
			</split>
			<split pos="right">
				<feature> 2 </feature>
				<threshold> 364.0 </threshold>
				<split pos="left">
					<feature> 4 </feature>
					<threshold> 38.0 </threshold>
					<split pos="left">
						<feature> 7 </feature>
						<threshold> 52165.023 </threshold>
						<split pos="left">
							<output> 3.6470391205511987E-4 </output>
						</split>
						<split pos="right">
							<output> 0.02533469721674919 </output>
						</split>
					</split>
					<split pos="right">
						<feature> 3 </feature>
						<threshold> 0.0 </threshold>
						<split pos="left">
							<output> 0.012523908168077469 </output>
						</split>
						<split pos="right">
							<output> 0.002108174841850996 </output>
						</split>
					</split>
				</split>
				<split pos="right">
					<output> 0.013388981111347675 </output>
				</split>
			</split>
		</split>
	</tree>
	<tree id="3" weight="0.1">
		<split>
			<feature> 5 </feature>
			<threshold> 5.0 </threshold>
			<split pos="left">
				<feature> 5 </feature>
				<threshold> 1.0 </threshold>
				<split pos="left">
					<output> 3.492517862468958E-5 </output>
				</split>
				<split pos="right">
					<feature> 9 </feature>
					<threshold> 60.0 </threshold>
					<split pos="left">
						<feature> 7 </feature>
						<threshold> 52165.023 </threshold>
						<split pos="left">
							<feature> 2 </feature>
							<threshold> 468.0 </threshold>
							<split pos="left">
								<feature> 4 </feature>
								<threshold> 20.0 </threshold>
								<split pos="left">
									<output> 1.371994731016457E-4 </output>
								</split>
								<split pos="right">
									<output> 6.31895090918988E-4 </output>
								</split>
							</split>
							<split pos="right">
								<output> 0.005765397567301989 </output>
							</split>
						</split>
						<split pos="right">
							<output> 0.0051405769772827625 </output>
						</split>
					</split>
					<split pos="right">
						<output> 0.010715238749980927 </output>
					</split>
				</split>
			</split>
			<split pos="right">
				<feature> 2 </feature>
				<threshold> 364.0 </threshold>
				<split pos="left">
					<feature> 7 </feature>
					<threshold> 84667.41 </threshold>
					<split pos="left">
						<feature> 4 </feature>
						<threshold> 46.0 </threshold>
						<split pos="left">
							<output> 3.586609673220664E-4 </output>
						</split>
						<split pos="right">
							<output> 0.002372014569118619 </output>
						</split>
					</split>
					<split pos="right">
						<output> 0.02750256471335888 </output>
					</split>
				</split>
				<split pos="right">
					<output> 0.0120500847697258 </output>
				</split>
			</split>
		</split>
	</tree>
	<tree id="4" weight="0.1">
		<split>
			<feature> 5 </feature>
			<threshold> 4.0 </threshold>
			<split pos="left">
				<feature> 5 </feature>
				<threshold> 0.0 </threshold>
				<split pos="left">
					<output> 9.90087391983252E-6 </output>
				</split>
				<split pos="right">
					<feature> 9 </feature>
					<threshold> 24.0 </threshold>
					<split pos="left">
						<feature> 4 </feature>
						<threshold> 26.0 </threshold>
						<split pos="left">
							<output> 7.909735722932965E-5 </output>
						</split>
						<split pos="right">
							<output> 4.4774357229471207E-4 </output>
						</split>
					</split>
					<split pos="right">
						<output> 0.0024044744204729795 </output>
					</split>
				</split>
			</split>
			<split pos="right">
				<feature> 2 </feature>
				<threshold> 364.0 </threshold>
				<split pos="left">
					<feature> 9 </feature>
					<threshold> 60.0 </threshold>
					<split pos="left">
						<feature> 7 </feature>
						<threshold> 52165.023 </threshold>
						<split pos="left">
							<feature> 4 </feature>
							<threshold> 46.0 </threshold>
							<split pos="left">
								<output> 2.8095763991586864E-4 </output>
							</split>
							<split pos="right">
								<feature> 3 </feature>
								<threshold> 0.0 </threshold>
								<split pos="left">
									<output> 0.00953793153166771 </output>
								</split>
								<split pos="right">
									<output> 0.001480845152400434 </output>
								</split>
							</split>
						</split>
						<split pos="right">
							<output> 0.01051914133131504 </output>
						</split>
					</split>
					<split pos="right">
						<output> 0.02302011288702488 </output>
					</split>
				</split>
				<split pos="right">
					<output> 0.009512416087090969 </output>
				</split>
			</split>
		</split>
	</tree>
	<tree id="5" weight="0.1">
		<split>
			<feature> 5 </feature>
			<threshold> 5.0 </threshold>
			<split pos="left">
				<feature> 9 </feature>
				<threshold> 60.0 </threshold>
				<split pos="left">
					<feature> 5 </feature>
					<threshold> 1.0 </threshold>
					<split pos="left">
						<output> 2.5980501959566027E-5 </output>
					</split>
					<split pos="right">
						<feature> 7 </feature>
						<threshold> 52165.023 </threshold>
						<split pos="left">
							<feature> 2 </feature>
							<threshold> 468.0 </threshold>
							<split pos="left">
								<feature> 2 </feature>
								<threshold> 28.0 </threshold>
								<split pos="left">
									<output> 1.2903203605674207E-4 </output>
								</split>
								<split pos="right">
									<output> 6.059752777218819E-4 </output>
								</split>
							</split>
							<split pos="right">
								<output> 0.004960601683706045 </output>
							</split>
						</split>
						<split pos="right">
							<output> 0.004508473910391331 </output>
						</split>
					</split>
				</split>
				<split pos="right">
					<output> 0.0023207291960716248 </output>
				</split>
			</split>
			<split pos="right">
				<feature> 2 </feature>
				<threshold> 364.0 </threshold>
				<split pos="left">
					<feature> 7 </feature>
					<threshold> 84667.41 </threshold>
					<split pos="left">
						<feature> 4 </feature>
						<threshold> 22.0 </threshold>
						<split pos="left">
							<output> 2.3541407426819205E-4 </output>
						</split>
						<split pos="right">
							<output> 0.0017143888399004936 </output>
						</split>
					</split>
					<split pos="right">
						<output> 0.02370040863752365 </output>
					</split>
				</split>
				<split pos="right">
					<output> 0.009893820621073246 </output>
				</split>
			</split>
		</split>
	</tree>
	<tree id="6" weight="0.1">
		<split>
			<feature> 5 </feature>
			<threshold> 2.0 </threshold>
			<split pos="left">
				<feature> 9 </feature>
				<threshold> 12.0 </threshold>
				<split pos="left">
					<feature> 4 </feature>
					<threshold> 14.0 </threshold>
					<split pos="left">
						<output> 5.063980552222347E-6 </output>
					</split>
					<split pos="right">
						<output> 7.221294799819589E-5 </output>
					</split>
				</split>
				<split pos="right">
					<output> 2.993298985529691E-4 </output>
				</split>
			</split>
			<split pos="right">
				<feature> 4 </feature>
				<threshold> 1612.0 </threshold>
				<split pos="left">
					<feature> 9 </feature>
					<threshold> 60.0 </threshold>
					<split pos="left">
						<feature> 7 </feature>
						<threshold> 52165.023 </threshold>
						<split pos="left">
							<feature> 4 </feature>
							<threshold> 26.0 </threshold>
							<split pos="left">
								<feature> 6 </feature>
								<threshold> 0.0 </threshold>
								<split pos="left">
									<output> 1.1585112224565819E-4 </output>
								</split>
								<split pos="right">
									<output> 6.55394687782973E-4 </output>
								</split>
							</split>
							<split pos="right">
								<feature> 3 </feature>
								<threshold> 5.0 </threshold>
								<split pos="left">
									<output> 0.0027177867013961077 </output>
								</split>
								<split pos="right">
									<output> 4.7937172348611057E-4 </output>
								</split>
							</split>
						</split>
						<split pos="right">
							<output> 0.008015102706849575 </output>
						</split>
					</split>
					<split pos="right">
						<output> 0.013815181329846382 </output>
					</split>
				</split>
				<split pos="right">
					<output> 0.005973444785922766 </output>
				</split>
			</split>
		</split>
	</tree>
	<tree id="7" weight="0.1">
		<split>
			<feature> 5 </feature>
			<threshold> 5.0 </threshold>
			<split pos="left">
				<feature> 9 </feature>
				<threshold> 24.0 </threshold>
				<split pos="left">
					<feature> 5 </feature>
					<threshold> 1.0 </threshold>
					<split pos="left">
						<output> 1.54050430865027E-5 </output>
					</split>
					<split pos="right">
						<feature> 4 </feature>
						<threshold> 4266.0 </threshold>
						<split pos="left">
							<feature> 8 </feature>
							<threshold> 3871.9375 </threshold>
							<split pos="left">
								<feature> 9 </feature>
								<threshold> 5.0 </threshold>
								<split pos="left">
									<output> 1.0715099051594734E-4 </output>
								</split>
								<split pos="right">
									<output> 5.459373933263123E-4 </output>
								</split>
							</split>
							<split pos="right">
								<output> 0.01289489958435297 </output>
							</split>
						</split>
						<split pos="right">
							<output> 0.009002170525491238 </output>
						</split>
					</split>
				</split>
				<split pos="right">
					<output> 5.538207478821278E-4 </output>
				</split>
			</split>
			<split pos="right">
				<feature> 2 </feature>
				<threshold> 364.0 </threshold>
				<split pos="left">
					<feature> 7 </feature>
					<threshold> 84667.41 </threshold>
					<split pos="left">
						<feature> 4 </feature>
						<threshold> 38.0 </threshold>
						<split pos="left">
							<output> 2.2980790527071804E-4 </output>
						</split>
						<split pos="right">
							<output> 0.0015969201922416687 </output>
						</split>
					</split>
					<split pos="right">
						<output> 0.020528843626379967 </output>
					</split>
				</split>
				<split pos="right">
					<output> 0.008477735333144665 </output>
				</split>
			</split>
		</split>
	</tree>
	<tree id="8" weight="0.1">
		<split>
			<feature> 5 </feature>
			<threshold> 5.0 </threshold>
			<split pos="left">
				<feature> 9 </feature>
				<threshold> 60.0 </threshold>
				<split pos="left">
					<feature> 5 </feature>
					<threshold> 0.0 </threshold>
					<split pos="left">
						<output> 3.438002522671013E-7 </output>
					</split>
					<split pos="right">
						<feature> 9 </feature>
						<threshold> 24.0 </threshold>
						<split pos="left">
							<feature> 4 </feature>
							<threshold> 4266.0 </threshold>
							<split pos="left">
								<feature> 8 </feature>
								<threshold> 5807.9062 </threshold>
								<split pos="left">
									<output> 9.840087295742705E-5 </output>
								</split>
								<split pos="right">
									<output> 0.004988361150026321 </output>
								</split>
							</split>
							<split pos="right">
								<output> 0.0035453643649816513 </output>
							</split>
						</split>
						<split pos="right">
							<output> 0.0018164842622354627 </output>
						</split>
					</split>
				</split>
				<split pos="right">
					<output> 0.0018937436398118734 </output>
				</split>
			</split>
			<split pos="right">
				<feature> 2 </feature>
				<threshold> 364.0 </threshold>
				<split pos="left">
					<feature> 7 </feature>
					<threshold> 84667.41 </threshold>
					<split pos="left">
						<feature> 4 </feature>
						<threshold> 22.0 </threshold>
						<split pos="left">
							<output> 1.7155161185655743E-4 </output>
						</split>
						<split pos="right">
							<output> 0.0012941821478307247 </output>
						</split>
					</split>
					<split pos="right">
						<output> 0.018475962802767754 </output>
					</split>
				</split>
				<split pos="right">
					<output> 0.007629950065165758 </output>
				</split>
			</split>
		</split>
	</tree>
	<tree id="9" weight="0.1">
		<split>
			<feature> 5 </feature>
			<threshold> 5.0 </threshold>
			<split pos="left">
				<feature> 9 </feature>
				<threshold> 60.0 </threshold>
				<split pos="left">
					<feature> 5 </feature>
					<threshold> 0.0 </threshold>
					<split pos="left">
						<output> 3.2055541510089824E-7 </output>
					</split>
					<split pos="right">
						<feature> 9 </feature>
						<threshold> 24.0 </threshold>
						<split pos="left">
							<feature> 4 </feature>
							<threshold> 26.0 </threshold>
							<split pos="left">
								<output> 4.549394725472666E-5 </output>
							</split>
							<split pos="right">
								<output> 2.96563608571887E-4 </output>
							</split>
						</split>
						<split pos="right">
							<output> 0.0016348353819921613 </output>
						</split>
					</split>
				</split>
				<split pos="right">
					<output> 0.00170436582993716 </output>
				</split>
			</split>
			<split pos="right">
				<feature> 2 </feature>
				<threshold> 364.0 </threshold>
				<split pos="left">
					<feature> 7 </feature>
					<threshold> 84667.41 </threshold>
					<split pos="left">
						<feature> 9 </feature>
						<threshold> 60.0 </threshold>
						<split pos="left">
							<feature> 4 </feature>
							<threshold> 22.0 </threshold>
							<split pos="left">
								<output> 1.5438398986589164E-4 </output>
							</split>
							<split pos="right">
								<output> 0.0011117482790723443 </output>
							</split>
						</split>
						<split pos="right">
							<output> 0.016119731590151787 </output>
						</split>
					</split>
					<split pos="right">
						<output> 0.01662837527692318 </output>
					</split>
				</split>
				<split pos="right">
					<output> 0.006866972427815199 </output>
				</split>
			</split>
		</split>
	</tree>
	<tree id="10" weight="0.1">
		<split>
			<feature> 5 </feature>
			<threshold> 2.0 </threshold>
			<split pos="left">
				<feature> 9 </feature>
				<threshold> 12.0 </threshold>
				<split pos="left">
					<feature> 4 </feature>
					<threshold> 14.0 </threshold>
					<split pos="left">
						<output> -1.2369845308057847E-6 </output>
					</split>
					<split pos="right">
						<output> 5.38324165972881E-5 </output>
					</split>
				</split>
				<split pos="right">
					<output> 2.0241561287548393E-4 </output>
				</split>
			</split>
			<split pos="right">
				<feature> 4 </feature>
				<threshold> 1612.0 </threshold>
				<split pos="left">
					<feature> 9 </feature>
					<threshold> 60.0 </threshold>
					<split pos="left">
						<feature> 7 </feature>
						<threshold> 52165.023 </threshold>
						<split pos="left">
							<feature> 15 </feature>
							<threshold> 0.0 </threshold>
							<split pos="left">
								<feature> 2 </feature>
								<threshold> 28.0 </threshold>
								<split pos="left">
									<feature> 4 </feature>
									<threshold> 63.0 </threshold>
									<split pos="left">
										<output> 7.884616934461519E-5 </output>
									</split>
									<split pos="right">
										<output> -0.0011566758621484041 </output>
									</split>
								</split>
								<split pos="right">
									<output> 7.020644843578339E-4 </output>
								</split>
							</split>
							<split pos="right">
								<output> 9.470380027778447E-4 </output>
							</split>
						</split>
						<split pos="right">
							<output> 0.00637036794796586 </output>
						</split>
					</split>
					<split pos="right">
						<output> 0.011431454680860043 </output>
					</split>
				</split>
				<split pos="right">
					<output> 0.004573279991745949 </output>
				</split>
			</split>
		</split>
	</tree>
	<tree id="11" weight="0.1">
		<split>
			<feature> 5 </feature>
			<threshold> 5.0 </threshold>
			<split pos="left">
				<feature> 5 </feature>
				<threshold> 0.0 </threshold>
				<split pos="left">
					<output> -2.9140103379177162E-6 </output>
				</split>
				<split pos="right">
					<feature> 9 </feature>
					<threshold> 24.0 </threshold>
					<split pos="left">
						<feature> 4 </feature>
						<threshold> 4266.0 </threshold>
						<split pos="left">
							<feature> 8 </feature>
							<threshold> 5807.9062 </threshold>
							<split pos="left">
								<feature> 4 </feature>
								<threshold> 14.0 </threshold>
								<split pos="left">
									<output> 2.2055161025491543E-5 </output>
								</split>
								<split pos="right">
									<output> 2.0951966871507466E-4 </output>
								</split>
							</split>
							<split pos="right">
								<output> 0.00445561483502388 </output>
							</split>
						</split>
						<split pos="right">
							<output> 0.0030509596690535545 </output>
						</split>
					</split>
					<split pos="right">
						<output> 0.0017695536371320486 </output>
					</split>
				</split>
			</split>
			<split pos="right">
				<feature> 2 </feature>
				<threshold> 364.0 </threshold>
				<split pos="left">
					<feature> 7 </feature>
					<threshold> 84667.41 </threshold>
					<split pos="left">
						<feature> 4 </feature>
						<threshold> 46.0 </threshold>
						<split pos="left">
							<output> 1.4751037815585732E-4 </output>
						</split>
						<split pos="right">
							<output> 0.0011676674475893378 </output>
						</split>
					</split>
					<split pos="right">
						<output> 0.014328482560813427 </output>
					</split>
				</split>
				<split pos="right">
					<output> 0.005843277554959059 </output>
				</split>
			</split>
		</split>
	</tree>
	<tree id="12" weight="0.1">
		<split>
			<feature> 5 </feature>
			<threshold> 5.0 </threshold>
			<split pos="left">
				<feature> 9 </feature>
				<threshold> 60.0 </threshold>
				<split pos="left">
					<feature> 9 </feature>
					<threshold> 36.0 </threshold>
					<split pos="left">
						<feature> 9 </feature>
						<threshold> 24.0 </threshold>
						<split pos="left">
							<feature> 5 </feature>
							<threshold> 1.0 </threshold>
							<split pos="left">
								<output> 7.3393075581407174E-6 </output>
							</split>
							<split pos="right">
								<output> 1.0051652498077601E-4 </output>
							</split>
						</split>
						<split pos="right">
							<output> 8.668600348755717E-4 </output>
						</split>
					</split>
					<split pos="right">
						<output> -4.900236963294446E-4 </output>
					</split>
				</split>
				<split pos="right">
					<output> 0.0013675243826583028 </output>
				</split>
			</split>
			<split pos="right">
				<feature> 1 </feature>
				<threshold> 8980.0 </threshold>
				<split pos="left">
					<feature> 2 </feature>
					<threshold> 364.0 </threshold>
					<split pos="left">
						<feature> 7 </feature>
						<threshold> 52165.023 </threshold>
						<split pos="left">
							<feature> 4 </feature>
							<threshold> 46.0 </threshold>
							<split pos="left">
								<output> 1.1460360110504553E-4 </output>
							</split>
							<split pos="right">
								<output> 0.0011341520585119724 </output>
							</split>
						</split>
						<split pos="right">
							<output> 0.015089321881532669 </output>
						</split>
					</split>
					<split pos="right">
						<output> 0.016467871144413948 </output>
					</split>
				</split>
				<split pos="right">
					<output> -0.0046659247018396854 </output>
				</split>
			</split>
		</split>
	</tree>
	<tree id="13" weight="0.1">
		<split>
			<feature> 5 </feature>
			<threshold> 5.0 </threshold>
			<split pos="left">
				<feature> 2 </feature>
				<threshold> 28.0 </threshold>
				<split pos="left">
					<output> 5.868472271686187E-6 </output>
				</split>
				<split pos="right">
					<feature> 2 </feature>
					<threshold> 31.0 </threshold>
					<split pos="left">
						<output> 0.0012203368823975325 </output>
					</split>
					<split pos="right">
						<output> 2.5404948246432468E-5 </output>
					</split>
				</split>
			</split>
			<split pos="right">
				<feature> 4 </feature>
				<threshold> 1612.0 </threshold>
				<split pos="left">
					<feature> 7 </feature>
					<threshold> 52165.023 </threshold>
					<split pos="left">
						<feature> 2 </feature>
						<threshold> 364.0 </threshold>
						<split pos="left">
							<feature> 9 </feature>
							<threshold> 60.0 </threshold>
							<split pos="left">
								<feature> 15 </feature>
								<threshold> 0.0 </threshold>
								<split pos="left">
									<feature> 1 </feature>
									<threshold> 80.0 </threshold>
									<split pos="left">
										<output> -6.281640708039049E-6 </output>
									</split>
									<split pos="right">
										<output> 8.447801228612661E-4 </output>
									</split>
								</split>
								<split pos="right">
									<output> 0.0011478762608021498 </output>
								</split>
							</split>
							<split pos="right">
								<output> 0.013134438544511795 </output>
							</split>
						</split>
						<split pos="right">
							<output> -0.007616344373673201 </output>
						</split>
					</split>
					<split pos="right">
						<output> 0.013580404222011566 </output>
					</split>
				</split>
				<split pos="right">
					<output> 0.003918266389518976 </output>
				</split>
			</split>
		</split>
	</tree>
	<tree id="14" weight="0.1">
		<split>
			<feature> 5 </feature>
			<threshold> 1.0 </threshold>
			<split pos="left">
				<output> 5.644377324642846E-6 </output>
			</split>
			<split pos="right">
				<feature> 9 </feature>
				<threshold> 60.0 </threshold>
				<split pos="left">
					<feature> 4 </feature>
					<threshold> 1612.0 </threshold>
					<split pos="left">
						<feature> 7 </feature>
						<threshold> 52165.023 </threshold>
						<split pos="left">
							<feature> 2 </feature>
							<threshold> 126.0 </threshold>
							<split pos="left">
								<feature> 2 </feature>
								<threshold> 28.0 </threshold>
								<split pos="left">
									<feature> 4 </feature>
									<threshold> 63.0 </threshold>
									<split pos="left">
										<feature> 4 </feature>
										<threshold> 58.0 </threshold>
										<split pos="left">
											<feature> 15 </feature>
											<threshold> 0.0 </threshold>
											<split pos="left">
												<output> 2.1838783140992746E-5 </output>
											</split>
											<split pos="right">
												<output> 4.7822657506912947E-4 </output>
											</split>
										</split>
										<split pos="right">
											<output> 0.019259359687566757 </output>
										</split>
									</split>
									<split pos="right">
										<output> -0.0010052191792055964 </output>
									</split>
								</split>
								<split pos="right">
									<output> 7.625579019077122E-4 </output>
								</split>
							</split>
							<split pos="right">
								<output> -0.0010216034715995193 </output>
							</split>
						</split>
						<split pos="right">
							<output> 0.004293920937925577 </output>
						</split>
					</split>
					<split pos="right">
						<output> 0.0025151914451271296 </output>
					</split>
				</split>
				<split pos="right">
					<output> 0.008126780390739441 </output>
				</split>
			</split>
		</split>
	</tree>
	<tree id="15" weight="0.1">
		<split>
			<feature> 5 </feature>
			<threshold> 2.0 </threshold>
			<split pos="left">
				<feature> 9 </feature>
				<threshold> 29.0 </threshold>
				<split pos="left">
					<feature> 9 </feature>
					<threshold> 24.0 </threshold>
					<split pos="left">
						<output> 8.679204256623052E-6 </output>
					</split>
					<split pos="right">
						<output> 0.001064602518454194 </output>
					</split>
				</split>
				<split pos="right">
					<output> -2.7021701680496335E-4 </output>
				</split>
			</split>
			<split pos="right">
				<feature> 4 </feature>
				<threshold> 1612.0 </threshold>
				<split pos="left">
					<feature> 9 </feature>
					<threshold> 60.0 </threshold>
					<split pos="left">
						<feature> 7 </feature>
						<threshold> 52165.023 </threshold>
						<split pos="left">
							<feature> 2 </feature>
							<threshold> 126.0 </threshold>
							<split pos="left">
								<feature> 2 </feature>
								<threshold> 28.0 </threshold>
								<split pos="left">
									<feature> 4 </feature>
									<threshold> 63.0 </threshold>
									<split pos="left">
										<output> 9.49183086049743E-5 </output>
									</split>
									<split pos="right">
										<output> -0.0011285385116934776 </output>
									</split>
								</split>
								<split pos="right">
									<output> 8.937915554270148E-4 </output>
								</split>
							</split>
							<split pos="right">
								<output> -0.001170929754152894 </output>
							</split>
						</split>
						<split pos="right">
							<output> 0.004099276382476091 </output>
						</split>
					</split>
					<split pos="right">
						<output> 0.008674494922161102 </output>
					</split>
				</split>
				<split pos="right">
					<output> 0.003248218446969986 </output>
				</split>
			</split>
		</split>
	</tree>
	<tree id="16" weight="0.1">
		<split>
			<feature> 3 </feature>
			<threshold> 156.0 </threshold>
			<split pos="left">
				<feature> 4 </feature>
				<threshold> 50.0 </threshold>
				<split pos="left">
					<feature> 7 </feature>
					<threshold> 52165.023 </threshold>
					<split pos="left">
						<feature> 15 </feature>
						<threshold> 0.0 </threshold>
						<split pos="left">
							<feature> 6 </feature>
							<threshold> 0.0 </threshold>
							<split pos="left">
								<feature> 9 </feature>
								<threshold> 24.0 </threshold>
								<split pos="left">
									<output> -1.3607968867290765E-5 </output>
								</split>
								<split pos="right">
									<output> -6.050879019312561E-4 </output>
								</split>
							</split>
							<split pos="right">
								<output> 9.183742804452777E-5 </output>
							</split>
						</split>
						<split pos="right">
							<output> 8.672443800605834E-5 </output>
						</split>
					</split>
					<split pos="right">
						<output> 7.761127199046314E-4 </output>
					</split>
				</split>
				<split pos="right">
					<feature> 5 </feature>
					<threshold> 2.0 </threshold>
					<split pos="left">
						<output> 1.1166309559484944E-4 </output>
					</split>
					<split pos="right">
						<feature> 2 </feature>
						<threshold> 364.0 </threshold>
						<split pos="left">
							<feature> 2 </feature>
							<threshold> 34.0 </threshold>
							<split pos="left">
								<output> 0.0024285963736474514 </output>
							</split>
							<split pos="right">
								<output> -1.3760928413830698E-4 </output>
							</split>
						</split>
						<split pos="right">
							<output> 0.009270538575947285 </output>
						</split>
					</split>
				</split>
			</split>
			<split pos="right">
				<output> -2.8690401813946664E-4 </output>
			</split>
		</split>
	</tree>
	<tree id="17" weight="0.1">
		<split>
			<feature> 4 </feature>
			<threshold> 14.0 </threshold>
			<split pos="left">
				<feature> 7 </feature>
				<threshold> 52165.023 </threshold>
				<split pos="left">
					<feature> 5 </feature>
					<threshold> 16.0 </threshold>
					<split pos="left">
						<output> -1.1440343769208994E-5 </output>
					</split>
					<split pos="right">
						<output> 3.3014066866599023E-4 </output>
					</split>
				</split>
				<split pos="right">
					<output> 6.984704523347318E-4 </output>
				</split>
			</split>
			<split pos="right">
				<feature> 5 </feature>
				<threshold> 0.0 </threshold>
				<split pos="left">
					<output> -2.25635631068144E-6 </output>
				</split>
				<split pos="right">
					<feature> 3 </feature>
					<threshold> 107.0 </threshold>
					<split pos="left">
						<feature> 3 </feature>
						<threshold> 106.0 </threshold>
						<split pos="left">
							<feature> 9 </feature>
							<threshold> 20.0 </threshold>
							<split pos="left">
								<feature> 3 </feature>
								<threshold> 6.0 </threshold>
								<split pos="left">
									<feature> 4 </feature>
									<threshold> 135.0 </threshold>
									<split pos="left">
										<output> 5.574015085585415E-4 </output>
									</split>
									<split pos="right">
										<output> 0.007238025777041912 </output>
									</split>
								</split>
								<split pos="right">
									<output> 6.636494799749926E-5 </output>
								</split>
							</split>
							<split pos="right">
								<output> 0.0021444798912853003 </output>
							</split>
						</split>
						<split pos="right">
							<output> 0.008536417968571186 </output>
						</split>
					</split>
					<split pos="right">
						<output> -6.925814668647945E-4 </output>
					</split>
				</split>
			</split>
		</split>
	</tree>
	<tree id="18" weight="0.1">
		<split>
			<feature> 5 </feature>
			<threshold> 5.0 </threshold>
			<split pos="left">
				<feature> 9 </feature>
				<threshold> 60.0 </threshold>
				<split pos="left">
					<feature> 9 </feature>
					<threshold> 29.0 </threshold>
					<split pos="left">
						<feature> 9 </feature>
						<threshold> 24.0 </threshold>
						<split pos="left">
							<feature> 7 </feature>
							<threshold> 84667.41 </threshold>
							<split pos="left">
								<feature> 7 </feature>
								<threshold> 52165.023 </threshold>
								<split pos="left">
									<output> 7.813779120624531E-6 </output>
								</split>
								<split pos="right">
									<output> 6.219984497874975E-4 </output>
								</split>
							</split>
							<split pos="right">
								<output> -7.255426608026028E-4 </output>
							</split>
						</split>
						<split pos="right">
							<output> 0.0011743016075342894 </output>
						</split>
					</split>
					<split pos="right">
						<output> -3.85029154131189E-4 </output>
					</split>
				</split>
				<split pos="right">
					<output> 9.851243812590837E-4 </output>
				</split>
			</split>
			<split pos="right">
				<feature> 1 </feature>
				<threshold> 8980.0 </threshold>
				<split pos="left">
					<feature> 2 </feature>
					<threshold> 364.0 </threshold>
					<split pos="left">
						<feature> 7 </feature>
						<threshold> 52165.023 </threshold>
						<split pos="left">
							<output> 1.5656907635275275E-4 </output>
						</split>
						<split pos="right">
							<output> 0.011235564947128296 </output>
						</split>
					</split>
					<split pos="right">
						<output> 0.012681463733315468 </output>
					</split>
				</split>
				<split pos="right">
					<output> -0.004673168063163757 </output>
				</split>
			</split>
		</split>
	</tree>
	<tree id="19" weight="0.1">
		<split>
			<feature> 4 </feature>
			<threshold> 14.0 </threshold>
			<split pos="left">
				<feature> 7 </feature>
				<threshold> 52165.023 </threshold>
				<split pos="left">
					<feature> 5 </feature>
					<threshold> 16.0 </threshold>
					<split pos="left">
						<output> -1.1958550203416962E-5 </output>
					</split>
					<split pos="right">
						<output> 2.8148849378339946E-4 </output>
					</split>
				</split>
				<split pos="right">
					<output> 5.672036786563694E-4 </output>
				</split>
			</split>
			<split pos="right">
				<feature> 5 </feature>
				<threshold> 28.0 </threshold>
				<split pos="left">
					<feature> 5 </feature>
					<threshold> 0.0 </threshold>
					<split pos="left">
						<output> -4.0841009649739135E-6 </output>
					</split>
					<split pos="right">
						<feature> 3 </feature>
						<threshold> 107.0 </threshold>
						<split pos="left">
							<feature> 3 </feature>
							<threshold> 106.0 </threshold>
							<split pos="left">
								<feature> 9 </feature>
								<threshold> 20.0 </threshold>
								<split pos="left">
									<feature> 3 </feature>
									<threshold> 6.0 </threshold>
									<split pos="left">
										<output> 6.945834029465914E-4 </output>
									</split>
									<split pos="right">
										<output> 4.640053884941153E-5 </output>
									</split>
								</split>
								<split pos="right">
									<output> 0.0018668596167117357 </output>
								</split>
							</split>
							<split pos="right">
								<output> 0.007377262692898512 </output>
							</split>
						</split>
						<split pos="right">
							<output> -6.153996218927205E-4 </output>
						</split>
					</split>
				</split>
				<split pos="right">
					<output> 0.010586874559521675 </output>
				</split>
			</split>
		</split>
	</tree>
	<tree id="20" weight="0.1">
		<split>
			<feature> 2 </feature>
			<threshold> 26.0 </threshold>
			<split pos="left">
				<feature> 9 </feature>
				<threshold> 24.0 </threshold>
				<split pos="left">
					<feature> 4 </feature>
					<threshold> 63.0 </threshold>
					<split pos="left">
						<feature> 4 </feature>
						<threshold> 57.0 </threshold>
						<split pos="left">
							<feature> 4 </feature>
							<threshold> 32.0 </threshold>
							<split pos="left">
								<feature> 4 </feature>
								<threshold> 26.0 </threshold>
								<split pos="left">
									<feature> 5 </feature>
									<threshold> 13.0 </threshold>
									<split pos="left">
										<feature> 5 </feature>
										<threshold> 11.0 </threshold>
										<split pos="left">
											<output> 7.650938869119273E-7 </output>
										</split>
										<split pos="right">
											<output> -3.4595871693454683E-4 </output>
										</split>
									</split>
									<split pos="right">
										<output> 2.3858214262872934E-4 </output>
									</split>
								</split>
								<split pos="right">
									<output> 2.711135311983526E-4 </output>
								</split>
							</split>
							<split pos="right">
								<output> -2.6956171495839953E-4 </output>
							</split>
						</split>
						<split pos="right">
							<output> 0.003985803574323654 </output>
						</split>
					</split>
					<split pos="right">
						<output> -3.075753920711577E-4 </output>
					</split>
				</split>
				<split pos="right">
					<output> -6.665994878858328E-4 </output>
				</split>
			</split>
			<split pos="right">
				<feature> 2 </feature>
				<threshold> 33.0 </threshold>
				<split pos="left">
					<output> 6.078325095586479E-4 </output>
				</split>
				<split pos="right">
					<output> -3.5583670978667215E-5 </output>
				</split>
			</split>
		</split>
	</tree>
	<tree id="21" weight="0.1">
		<split>
			<feature> 9 </feature>
			<threshold> 60.0 </threshold>
			<split pos="left">
				<feature> 9 </feature>
				<threshold> 29.0 </threshold>
				<split pos="left">
					<feature> 9 </feature>
					<threshold> 24.0 </threshold>
					<split pos="left">
						<feature> 5 </feature>
						<threshold> 6.0 </threshold>
						<split pos="left">
							<feature> 7 </feature>
							<threshold> 84667.41 </threshold>
							<split pos="left">
								<feature> 7 </feature>
								<threshold> 52165.023 </threshold>
								<split pos="left">
									<feature> 1 </feature>
									<threshold> 107.0 </threshold>
									<split pos="left">
										<feature> 1 </feature>
										<threshold> 98.0 </threshold>
										<split pos="left">
											<output> 1.1297333912807517E-5 </output>
										</split>
										<split pos="right">
											<output> 0.0010777012212201953 </output>
										</split>
									</split>
									<split pos="right">
										<output> -8.568193152314052E-5 </output>
									</split>
								</split>
								<split pos="right">
									<output> 6.351878400892019E-4 </output>
								</split>
							</split>
							<split pos="right">
								<output> -9.81659279204905E-4 </output>
							</split>
						</split>
						<split pos="right">
							<feature> 2 </feature>
							<threshold> 364.0 </threshold>
							<split pos="left">
								<output> 1.3105111429467797E-4 </output>
							</split>
							<split pos="right">
								<output> 0.008505469188094139 </output>
							</split>
						</split>
					</split>
					<split pos="right">
						<output> 0.0010823204647749662 </output>
					</split>
				</split>
				<split pos="right">
					<output> -4.636154626496136E-4 </output>
				</split>
			</split>
			<split pos="right">
				<output> 0.0012801486300304532 </output>
			</split>
		</split>
	</tree>
	<tree id="22" weight="0.1">
		<split>
			<feature> 2 </feature>
			<threshold> 28.0 </threshold>
			<split pos="left">
				<feature> 4 </feature>
				<threshold> 63.0 </threshold>
				<split pos="left">
					<feature> 4 </feature>
					<threshold> 58.0 </threshold>
					<split pos="left">
						<feature> 5 </feature>
						<threshold> 28.0 </threshold>
						<split pos="left">
							<feature> 7 </feature>
							<threshold> 52165.023 </threshold>
							<split pos="left">
								<feature> 9 </feature>
								<threshold> 24.0 </threshold>
								<split pos="left">
									<feature> 4 </feature>
									<threshold> 14.0 </threshold>
									<split pos="left">
										<output> -8.875885214365553E-6 </output>
									</split>
									<split pos="right">
										<output> 8.604777394793928E-5 </output>
									</split>
								</split>
								<split pos="right">
									<output> -4.152438195887953E-4 </output>
								</split>
							</split>
							<split pos="right">
								<output> 5.003054393455386E-4 </output>
							</split>
						</split>
						<split pos="right">
							<output> 0.0026692405808717012 </output>
						</split>
					</split>
					<split pos="right">
						<output> 0.003592933528125286 </output>
					</split>
				</split>
				<split pos="right">
					<output> -3.5784763167612255E-4 </output>
				</split>
			</split>
			<split pos="right">
				<feature> 2 </feature>
				<threshold> 31.0 </threshold>
				<split pos="left">
					<output> 0.0013656159862875938 </output>
				</split>
				<split pos="right">
					<feature> 8 </feature>
					<threshold> 2903.9531 </threshold>
					<split pos="left">
						<output> -1.4626845768361818E-5 </output>
					</split>
					<split pos="right">
						<output> 0.002403042046353221 </output>
					</split>
				</split>
			</split>
		</split>
	</tree>
	<tree id="23" weight="0.1">
		<split>
			<feature> 5 </feature>
			<threshold> 0.0 </threshold>
			<split pos="left">
				<output> -1.4008371181262191E-5 </output>
			</split>
			<split pos="right">
				<feature> 9 </feature>
				<threshold> 60.0 </threshold>
				<split pos="left">
					<feature> 9 </feature>
					<threshold> 36.0 </threshold>
					<split pos="left">
						<feature> 9 </feature>
						<threshold> 24.0 </threshold>
						<split pos="left">
							<feature> 2 </feature>
							<threshold> 430.0 </threshold>
							<split pos="left">
								<feature> 2 </feature>
								<threshold> 364.0 </threshold>
								<split pos="left">
									<feature> 9 </feature>
									<threshold> 5.0 </threshold>
									<split pos="left">
										<feature> 1 </feature>
										<threshold> 143.0 </threshold>
										<split pos="left">
											<feature> 4 </feature>
											<threshold> 98.0 </threshold>
											<split pos="left">
												<output> 2.519001100154128E-5 </output>
											</split>
											<split pos="right">
												<output> 0.004168736282736063 </output>
											</split>
										</split>
										<split pos="right">
											<output> -2.5786226615309715E-4 </output>
										</split>
									</split>
									<split pos="right">
										<output> 3.774054057430476E-4 </output>
									</split>
								</split>
								<split pos="right">
									<output> 0.00277054775506258 </output>
								</split>
							</split>
							<split pos="right">
								<output> -0.0018606556113809347 </output>
							</split>
						</split>
						<split pos="right">
							<output> 0.0022530993446707726 </output>
						</split>
					</split>
					<split pos="right">
						<output> -0.001578842056915164 </output>
					</split>
				</split>
				<split pos="right">
					<output> 0.005411346442997456 </output>
				</split>
			</split>
		</split>
	</tree>
	<tree id="24" weight="0.1">
		<split>
			<feature> 3 </feature>
			<threshold> 156.0 </threshold>
			<split pos="left">
				<feature> 4 </feature>
				<threshold> 50.0 </threshold>
				<split pos="left">
					<feature> 15 </feature>
					<threshold> 0.0 </threshold>
					<split pos="left">
						<feature> 2 </feature>
						<threshold> 12.0 </threshold>
						<split pos="left">
							<feature> 7 </feature>
							<threshold> 52165.023 </threshold>
							<split pos="left">
								<output> 2.735352609306574E-6 </output>
							</split>
							<split pos="right">
								<output> 0.002888270653784275 </output>
							</split>
						</split>
						<split pos="right">
							<output> -8.085923036560416E-5 </output>
						</split>
					</split>
					<split pos="right">
						<output> 7.372486288659275E-5 </output>
					</split>
				</split>
				<split pos="right">
					<feature> 5 </feature>
					<threshold> 28.0 </threshold>
					<split pos="left">
						<feature> 5 </feature>
						<threshold> 2.0 </threshold>
						<split pos="left">
							<output> 4.5385342673398554E-5 </output>
						</split>
						<split pos="right">
							<feature> 8 </feature>
							<threshold> 2903.9531 </threshold>
							<split pos="left">
								<feature> 4 </feature>
								<threshold> 1514.0 </threshold>
								<split pos="left">
									<output> 5.740865599364042E-4 </output>
								</split>
								<split pos="right">
									<output> 0.005163400433957577 </output>
								</split>
							</split>
							<split pos="right">
								<output> 0.019180119037628174 </output>
							</split>
						</split>
					</split>
					<split pos="right">
						<output> 0.024777958169579506 </output>
					</split>
				</split>
			</split>
			<split pos="right">
				<output> -1.9643893756438047E-4 </output>
			</split>
		</split>
	</tree>
	<tree id="25" weight="0.1">
		<split>
			<feature> 2 </feature>
			<threshold> 374.0 </threshold>
			<split pos="left">
				<feature> 2 </feature>
				<threshold> 364.0 </threshold>
				<split pos="left">
					<feature> 1 </feature>
					<threshold> 233.0 </threshold>
					<split pos="left">
						<feature> 1 </feature>
						<threshold> 218.0 </threshold>
						<split pos="left">
							<feature> 4 </feature>
							<threshold> 113.0 </threshold>
							<split pos="left">
								<feature> 9 </feature>
								<threshold> 24.0 </threshold>
								<split pos="left">
									<feature> 9 </feature>
									<threshold> 11.0 </threshold>
									<split pos="left">
										<feature> 15 </feature>
										<threshold> 0.0 </threshold>
										<split pos="left">
											<feature> 3 </feature>
											<threshold> 87.0 </threshold>
											<split pos="left">
												<output> -1.593999331817031E-5 </output>
											</split>
											<split pos="right">
												<output> 2.902285777963698E-4 </output>
											</split>
										</split>
										<split pos="right">
											<output> 7.830985123291612E-5 </output>
										</split>
									</split>
									<split pos="right">
										<output> 3.051348030567169E-4 </output>
									</split>
								</split>
								<split pos="right">
									<output> -3.691629972308874E-4 </output>
								</split>
							</split>
							<split pos="right">
								<output> 4.885781672783196E-4 </output>
							</split>
						</split>
						<split pos="right">
							<output> 0.002388071734458208 </output>
						</split>
					</split>
					<split pos="right">
						<output> -1.0952288721455261E-4 </output>
					</split>
				</split>
				<split pos="right">
					<output> 0.002610347466543317 </output>
				</split>
			</split>
			<split pos="right">
				<output> -4.4599868124350905E-4 </output>
			</split>
		</split>
	</tree>
	<tree id="26" weight="0.1">
		<split>
			<feature> 2 </feature>
			<threshold> 374.0 </threshold>
			<split pos="left">
				<feature> 2 </feature>
				<threshold> 364.0 </threshold>
				<split pos="left">
					<feature> 5 </feature>
					<threshold> 23.0 </threshold>
					<split pos="left">
						<feature> 1 </feature>
						<threshold> 233.0 </threshold>
						<split pos="left">
							<feature> 1 </feature>
							<threshold> 218.0 </threshold>
							<split pos="left">
								<feature> 4 </feature>
								<threshold> 113.0 </threshold>
								<split pos="left">
									<feature> 9 </feature>
									<threshold> 24.0 </threshold>
									<split pos="left">
										<feature> 2 </feature>
										<threshold> 30.0 </threshold>
										<split pos="left">
											<feature> 1 </feature>
											<threshold> 47.0 </threshold>
											<split pos="left">
												<output> 7.002618531259941E-6 </output>
											</split>
											<split pos="right">
												<output> -1.2747202708851546E-4 </output>
											</split>
										</split>
										<split pos="right">
											<output> 1.7185606702696532E-4 </output>
										</split>
									</split>
									<split pos="right">
										<output> -3.3063956652767956E-4 </output>
									</split>
								</split>
								<split pos="right">
									<output> 4.462244105525315E-4 </output>
								</split>
							</split>
							<split pos="right">
								<output> 0.002185109769925475 </output>
							</split>
						</split>
						<split pos="right">
							<output> -1.0879876936087385E-4 </output>
						</split>
					</split>
					<split pos="right">
						<output> 7.985339034348726E-4 </output>
					</split>
				</split>
				<split pos="right">
					<output> 0.002349366433918476 </output>
				</split>
			</split>
			<split pos="right">
				<output> -4.014152509626001E-4 </output>
			</split>
		</split>
	</tree>
	<tree id="27" weight="0.1">
		<split>
			<feature> 5 </feature>
			<threshold> 0.0 </threshold>
			<split pos="left">
				<output> -1.507220440544188E-5 </output>
			</split>
			<split pos="right">
				<feature> 9 </feature>
				<threshold> 60.0 </threshold>
				<split pos="left">
					<feature> 9 </feature>
					<threshold> 36.0 </threshold>
					<split pos="left">
						<feature> 9 </feature>
						<threshold> 24.0 </threshold>
						<split pos="left">
							<feature> 2 </feature>
							<threshold> 374.0 </threshold>
							<split pos="left">
								<feature> 2 </feature>
								<threshold> 364.0 </threshold>
								<split pos="left">
									<feature> 9 </feature>
									<threshold> 5.0 </threshold>
									<split pos="left">
										<feature> 8 </feature>
										<threshold> 5807.9062 </threshold>
										<split pos="left">
											<feature> 1 </feature>
											<threshold> 109.0 </threshold>
											<split pos="left">
												<output> 3.7968213291605935E-5 </output>
											</split>
											<split pos="right">
												<output> -2.3810660059098154E-4 </output>
											</split>
										</split>
										<split pos="right">
											<output> 0.004655509255826473 </output>
										</split>
									</split>
									<split pos="right">
										<output> 3.1327837496064603E-4 </output>
									</split>
								</split>
								<split pos="right">
									<output> 0.00540499109774828 </output>
								</split>
							</split>
							<split pos="right">
								<output> -0.001289823092520237 </output>
							</split>
						</split>
						<split pos="right">
							<output> 0.0019495288142934442 </output>
						</split>
					</split>
					<split pos="right">
						<output> -0.0013677107635885477 </output>
					</split>
				</split>
				<split pos="right">
					<output> 0.004747128114104271 </output>
				</split>
			</split>
		</split>
	</tree>
	<tree id="28" weight="0.1">
		<split>
			<feature> 4 </feature>
			<threshold> 14.0 </threshold>
			<split pos="left">
				<feature> 8 </feature>
				<threshold> 5807.9062 </threshold>
				<split pos="left">
					<feature> 6 </feature>
					<threshold> 58.0 </threshold>
					<split pos="left">
						<output> -1.2033088751195464E-5 </output>
					</split>
					<split pos="right">
						<output> 2.983158628921956E-4 </output>
					</split>
				</split>
				<split pos="right">
					<output> 0.0012370049953460693 </output>
				</split>
			</split>
			<split pos="right">
				<feature> 5 </feature>
				<threshold> 28.0 </threshold>
				<split pos="left">
					<feature> 15 </feature>
					<threshold> 0.0 </threshold>
					<split pos="left">
						<feature> 2 </feature>
						<threshold> 4.0 </threshold>
						<split pos="left">
							<output> 0.001252146903425455 </output>
						</split>
						<split pos="right">
							<feature> 8 </feature>
							<threshold> 967.9844 </threshold>
							<split pos="left">
								<feature> 2 </feature>
								<threshold> 26.0 </threshold>
								<split pos="left">
									<output> -1.0021981870522723E-4 </output>
								</split>
								<split pos="right">
									<feature> 2 </feature>
									<threshold> 31.0 </threshold>
									<split pos="left">
										<output> 6.06456131208688E-4 </output>
									</split>
									<split pos="right">
										<output> -3.565823135431856E-5 </output>
									</split>
								</split>
							</split>
							<split pos="right">
								<output> 7.13527959305793E-4 </output>
							</split>
						</split>
					</split>
					<split pos="right">
						<output> 2.886606380343437E-4 </output>
					</split>
				</split>
				<split pos="right">
					<output> 0.00820071343332529 </output>
				</split>
			</split>
		</split>
	</tree>
	<tree id="29" weight="0.1">
		<split>
			<feature> 5 </feature>
			<threshold> 0.0 </threshold>
			<split pos="left">
				<output> -1.4925552022759803E-5 </output>
			</split>
			<split pos="right">
				<feature> 9 </feature>
				<threshold> 60.0 </threshold>
				<split pos="left">
					<feature> 9 </feature>
					<threshold> 29.0 </threshold>
					<split pos="left">
						<feature> 9 </feature>
						<threshold> 24.0 </threshold>
						<split pos="left">
							<feature> 2 </feature>
							<threshold> 430.0 </threshold>
							<split pos="left">
								<feature> 2 </feature>
								<threshold> 364.0 </threshold>
								<split pos="left">
									<feature> 9 </feature>
									<threshold> 5.0 </threshold>
									<split pos="left">
										<feature> 12 </feature>
										<threshold> 0.0 </threshold>
										<split pos="left">
											<feature> 1 </feature>
											<threshold> 143.0 </threshold>
											<split pos="left">
												<output> 2.6704536139732227E-5 </output>
											</split>
											<split pos="right">
												<output> -2.9728864319622517E-4 </output>
											</split>
										</split>
										<split pos="right">
											<output> 4.7126360004767776E-4 </output>
										</split>
									</split>
									<split pos="right">
										<output> 2.772807201836258E-4 </output>
									</split>
								</split>
								<split pos="right">
									<output> 0.0020034457556903362 </output>
								</split>
							</split>
							<split pos="right">
								<output> -0.0014393134042620659 </output>
							</split>
						</split>
						<split pos="right">
							<output> 0.00293441372923553 </output>
						</split>
					</split>
					<split pos="right">
						<output> -0.0010984725086018443 </output>
					</split>
				</split>
				<split pos="right">
					<output> 0.004274867009371519 </output>
				</split>
			</split>
		</split>
	</tree>
	<tree id="30" weight="0.1">
		<split>
			<feature> 2 </feature>
			<threshold> 374.0 </threshold>
			<split pos="left">
				<feature> 2 </feature>
				<threshold> 309.0 </threshold>
				<split pos="left">
					<feature> 1 </feature>
					<threshold> 233.0 </threshold>
					<split pos="left">
						<feature> 1 </feature>
						<threshold> 218.0 </threshold>
						<split pos="left">
							<feature> 4 </feature>
							<threshold> 113.0 </threshold>
							<split pos="left">
								<feature> 9 </feature>
								<threshold> 24.0 </threshold>
								<split pos="left">
									<feature> 9 </feature>
									<threshold> 11.0 </threshold>
									<split pos="left">
										<feature> 1 </feature>
										<threshold> 91.0 </threshold>
										<split pos="left">
											<feature> 1 </feature>
											<threshold> 80.0 </threshold>
											<split pos="left">
												<output> 1.2892272707176744E-6 </output>
											</split>
											<split pos="right">
												<output> 4.19431395130232E-4 </output>
											</split>
										</split>
										<split pos="right">
											<output> -1.763960754033178E-4 </output>
										</split>
									</split>
									<split pos="right">
										<output> 2.3482234973926097E-4 </output>
									</split>
								</split>
								<split pos="right">
									<output> -3.023073077201843E-4 </output>
								</split>
							</split>
							<split pos="right">
								<output> 3.61957645509392E-4 </output>
							</split>
						</split>
						<split pos="right">
							<output> 0.0018435812089592218 </output>
						</split>
					</split>
					<split pos="right">
						<output> -9.874319221125916E-5 </output>
					</split>
				</split>
				<split pos="right">
					<output> 0.001301440643146634 </output>
				</split>
			</split>
			<split pos="right">
				<output> -3.39118909323588E-4 </output>
			</split>
		</split>
	</tree>
	<tree id="31" weight="0.1">
		<split>
			<feature> 5 </feature>
			<threshold> 5.0 </threshold>
			<split pos="left">
				<feature> 7 </feature>
				<threshold> 84667.41 </threshold>
				<split pos="left">
					<feature> 1 </feature>
					<threshold> 8836.0 </threshold>
					<split pos="left">
						<feature> 2 </feature>
						<threshold> 364.0 </threshold>
						<split pos="left">
							<feature> 2 </feature>
							<threshold> 309.0 </threshold>
							<split pos="left">
								<feature> 1 </feature>
								<threshold> 107.0 </threshold>
								<split pos="left">
									<output> 6.052081062080106E-6 </output>
								</split>
								<split pos="right">
									<output> -5.6966982810990885E-5 </output>
								</split>
							</split>
							<split pos="right">
								<output> 8.161209989339113E-4 </output>
							</split>
						</split>
						<split pos="right">
							<output> -9.406594908796251E-4 </output>
						</split>
					</split>
					<split pos="right">
						<output> 2.3614575911778957E-4 </output>
					</split>
				</split>
				<split pos="right">
					<output> -6.382521823979914E-4 </output>
				</split>
			</split>
			<split pos="right">
				<feature> 2 </feature>
				<threshold> 374.0 </threshold>
				<split pos="left">
					<feature> 2 </feature>
					<threshold> 364.0 </threshold>
					<split pos="left">
						<feature> 15 </feature>
						<threshold> 0.0 </threshold>
						<split pos="left">
							<output> 1.8615953649714356E-6 </output>
						</split>
						<split pos="right">
							<output> 8.479778771288693E-4 </output>
						</split>
					</split>
					<split pos="right">
						<output> 0.026460016146302223 </output>
					</split>
				</split>
				<split pos="right">
					<output> -0.006263216957449913 </output>
				</split>
			</split>
		</split>
	</tree>
	<tree id="32" weight="0.1">
		<split>
			<feature> 2 </feature>
			<threshold> 28.0 </threshold>
			<split pos="left">
				<feature> 4 </feature>
				<threshold> 221.0 </threshold>
				<split pos="left">
					<feature> 4 </feature>
					<threshold> 63.0 </threshold>
					<split pos="left">
						<feature> 4 </feature>
						<threshold> 58.0 </threshold>
						<split pos="left">
							<feature> 5 </feature>
							<threshold> 28.0 </threshold>
							<split pos="left">
								<feature> 4 </feature>
								<threshold> 14.0 </threshold>
								<split pos="left">
									<output> -1.1545907909749076E-5 </output>
								</split>
								<split pos="right">
									<output> 6.537685840157792E-5 </output>
								</split>
							</split>
							<split pos="right">
								<output> 0.0022067748941481113 </output>
							</split>
						</split>
						<split pos="right">
							<output> 0.002561088651418686 </output>
						</split>
					</split>
					<split pos="right">
						<output> -2.95008736429736E-4 </output>
					</split>
				</split>
				<split pos="right">
					<output> -0.001594850909896195 </output>
				</split>
			</split>
			<split pos="right">
				<feature> 2 </feature>
				<threshold> 31.0 </threshold>
				<split pos="left">
					<output> 0.001023431308567524 </output>
				</split>
				<split pos="right">
					<feature> 8 </feature>
					<threshold> 2903.9531 </threshold>
					<split pos="left">
						<feature> 5 </feature>
						<threshold> 9.0 </threshold>
						<split pos="left">
							<output> 8.907908522814978E-6 </output>
						</split>
						<split pos="right">
							<output> -8.38344101794064E-4 </output>
						</split>
					</split>
					<split pos="right">
						<output> 0.0018953984836116433 </output>
					</split>
				</split>
			</split>
		</split>
	</tree>
	<tree id="33" weight="0.1">
		<split>
			<feature> 5 </feature>
			<threshold> 1.0 </threshold>
			<split pos="left">
				<output> -9.317734111391474E-6 </output>
			</split>
			<split pos="right">
				<feature> 3 </feature>
				<threshold> 280.0 </threshold>
				<split pos="left">
					<feature> 4 </feature>
					<threshold> 1514.0 </threshold>
					<split pos="left">
						<feature> 7 </feature>
						<threshold> 6822.449 </threshold>
						<split pos="left">
							<feature> 9 </feature>
							<threshold> 60.0 </threshold>
							<split pos="left">
								<feature> 9 </feature>
								<threshold> 25.0 </threshold>
								<split pos="left">
									<feature> 14 </feature>
									<threshold> 0.0 </threshold>
									<split pos="left">
										<feature> 1 </feature>
										<threshold> 102.0 </threshold>
										<split pos="left">
											<feature> 1 </feature>
											<threshold> 98.0 </threshold>
											<split pos="left">
												<output> 2.8987868063268252E-5 </output>
											</split>
											<split pos="right">
												<output> 0.01113825011998415 </output>
											</split>
										</split>
										<split pos="right">
											<output> -5.251595284789801E-4 </output>
										</split>
									</split>
									<split pos="right">
										<output> 3.6613488919101655E-4 </output>
									</split>
								</split>
								<split pos="right">
									<output> -0.0014268738450482488 </output>
								</split>
							</split>
							<split pos="right">
								<output> 0.004541768226772547 </output>
							</split>
						</split>
						<split pos="right">
							<output> 0.0013718754053115845 </output>
						</split>
					</split>
					<split pos="right">
						<output> 0.003114064922556281 </output>
					</split>
				</split>
				<split pos="right">
					<output> -0.0011981268180534244 </output>
				</split>
			</split>
		</split>
	</tree>
	<tree id="34" weight="0.1">
		<split>
			<feature> 4 </feature>
			<threshold> 2.0 </threshold>
			<split pos="left">
				<output> -2.671004767762497E-5 </output>
			</split>
			<split pos="right">
				<feature> 5 </feature>
				<threshold> 5.0 </threshold>
				<split pos="left">
					<feature> 5 </feature>
					<threshold> 0.0 </threshold>
					<split pos="left">
						<output> -1.8790298781823367E-5 </output>
					</split>
					<split pos="right">
						<feature> 9 </feature>
						<threshold> 24.0 </threshold>
						<split pos="left">
							<feature> 8 </feature>
							<threshold> 5807.9062 </threshold>
							<split pos="left">
								<feature> 10 </feature>
								<threshold> 3.0 </threshold>
								<split pos="left">
									<output> 1.6482646969961934E-5 </output>
								</split>
								<split pos="right">
									<output> 0.0012311903992667794 </output>
								</split>
							</split>
							<split pos="right">
								<output> 0.005945052020251751 </output>
							</split>
						</split>
						<split pos="right">
							<output> 8.952897624112666E-4 </output>
						</split>
					</split>
				</split>
				<split pos="right">
					<feature> 2 </feature>
					<threshold> 374.0 </threshold>
					<split pos="left">
						<feature> 2 </feature>
						<threshold> 364.0 </threshold>
						<split pos="left">
							<feature> 15 </feature>
							<threshold> 0.0 </threshold>
							<split pos="left">
								<output> 1.0371646203566343E-4 </output>
							</split>
							<split pos="right">
								<output> 0.0015488305361941457 </output>
							</split>
						</split>
						<split pos="right">
							<output> 0.023540502414107323 </output>
						</split>
					</split>
					<split pos="right">
						<output> -0.005618555936962366 </output>
					</split>
				</split>
			</split>
		</split>
	</tree>
	<tree id="35" weight="0.1">
		<split>
			<feature> 4 </feature>
			<threshold> 14.0 </threshold>
			<split pos="left">
				<feature> 7 </feature>
				<threshold> 52165.023 </threshold>
				<split pos="left">
					<feature> 6 </feature>
					<threshold> 58.0 </threshold>
					<split pos="left">
						<feature> 9 </feature>
						<threshold> 24.0 </threshold>
						<split pos="left">
							<feature> 9 </feature>
							<threshold> 14.0 </threshold>
							<split pos="left">
								<output> -1.4285531506175175E-5 </output>
							</split>
							<split pos="right">
								<output> 4.7062287922017276E-4 </output>
							</split>
						</split>
						<split pos="right">
							<output> -4.4430693378672004E-4 </output>
						</split>
					</split>
					<split pos="right">
						<output> 2.7757836505770683E-4 </output>
					</split>
				</split>
				<split pos="right">
					<output> 3.620103234425187E-4 </output>
				</split>
			</split>
			<split pos="right">
				<feature> 5 </feature>
				<threshold> 28.0 </threshold>
				<split pos="left">
					<feature> 5 </feature>
					<threshold> 0.0 </threshold>
					<split pos="left">
						<output> -2.8887754524475895E-5 </output>
					</split>
					<split pos="right">
						<feature> 2 </feature>
						<threshold> 34.0 </threshold>
						<split pos="left">
							<feature> 2 </feature>
							<threshold> 28.0 </threshold>
							<split pos="left">
								<output> 6.547918019350618E-5 </output>
							</split>
							<split pos="right">
								<output> 0.002290628384798765 </output>
							</split>
						</split>
						<split pos="right">
							<output> -1.6873837739694864E-4 </output>
						</split>
					</split>
				</split>
				<split pos="right">
					<output> 0.007264542859047651 </output>
				</split>
			</split>
		</split>
	</tree>
	<tree id="36" weight="0.1">
		<split>
			<feature> 5 </feature>
			<threshold> 23.0 </threshold>
			<split pos="left">
				<feature> 5 </feature>
				<threshold> 18.0 </threshold>
				<split pos="left">
					<feature> 5 </feature>
					<threshold> 16.0 </threshold>
					<split pos="left">
						<feature> 9 </feature>
						<threshold> 29.0 </threshold>
						<split pos="left">
							<feature> 9 </feature>
							<threshold> 24.0 </threshold>
							<split pos="left">
								<feature> 4 </feature>
								<threshold> 1660.0 </threshold>
								<split pos="left">
									<feature> 5 </feature>
									<threshold> 6.0 </threshold>
									<split pos="left">
										<feature> 4 </feature>
										<threshold> 1612.0 </threshold>
										<split pos="left">
											<feature> 7 </feature>
											<threshold> 63801.613 </threshold>
											<split pos="left">
												<output> 5.830804639117559E-7 </output>
											</split>
											<split pos="right">
												<output> -9.029873763211071E-4 </output>
											</split>
										</split>
										<split pos="right">
											<output> -0.0020058949012309313 </output>
										</split>
									</split>
									<split pos="right">
										<output> 1.1693921987898648E-4 </output>
									</split>
								</split>
								<split pos="right">
									<output> -2.594852994661778E-4 </output>
								</split>
							</split>
							<split pos="right">
								<output> 6.20553269982338E-4 </output>
							</split>
						</split>
						<split pos="right">
							<output> -2.1151412511244416E-4 </output>
						</split>
					</split>
					<split pos="right">
						<output> 5.199749721214175E-4 </output>
					</split>
				</split>
				<split pos="right">
					<output> -3.601277421694249E-4 </output>
				</split>
			</split>
			<split pos="right">
				<output> 5.322789656929672E-4 </output>
			</split>
		</split>
	</tree>
	<tree id="37" weight="0.1">
		<split>
			<feature> 6 </feature>
			<threshold> 355.0 </threshold>
			<split pos="left">
				<feature> 4 </feature>
				<threshold> 297.0 </threshold>
				<split pos="left">
					<feature> 4 </feature>
					<threshold> 154.0 </threshold>
					<split pos="left">
						<feature> 4 </feature>
						<threshold> 151.0 </threshold>
						<split pos="left">
							<feature> 4 </feature>
							<threshold> 127.0 </threshold>
							<split pos="left">
								<feature> 4 </feature>
								<threshold> 113.0 </threshold>
								<split pos="left">
									<feature> 4 </feature>
									<threshold> 80.0 </threshold>
									<split pos="left">
										<feature> 4 </feature>
										<threshold> 50.0 </threshold>
										<split pos="left">
											<feature> 4 </feature>
											<threshold> 39.0 </threshold>
											<split pos="left">
												<output> -4.567487223994249E-7 </output>
											</split>
											<split pos="right">
												<output> -2.441030810587108E-4 </output>
											</split>
										</split>
										<split pos="right">
											<output> 3.065788187086582E-4 </output>
										</split>
									</split>
									<split pos="right">
										<output> -2.370005677221343E-4 </output>
									</split>
								</split>
								<split pos="right">
									<output> 7.182235131040215E-4 </output>
								</split>
							</split>
							<split pos="right">
								<output> -2.4715354084037244E-4 </output>
							</split>
						</split>
						<split pos="right">
							<output> 0.002486617537215352 </output>
						</split>
					</split>
					<split pos="right">
						<output> -2.295755984960124E-4 </output>
					</split>
				</split>
				<split pos="right">
					<output> 1.1933117639273405E-4 </output>
				</split>
			</split>
			<split pos="right">
				<output> -6.565561634488404E-4 </output>
			</split>
		</split>
	</tree>
	<tree id="38" weight="0.1">
		<split>
			<feature> 4 </feature>
			<threshold> 2.0 </threshold>
			<split pos="left">
				<output> -2.357560515520163E-5 </output>
			</split>
			<split pos="right">
				<feature> 5 </feature>
				<threshold> 5.0 </threshold>
				<split pos="left">
					<feature> 1 </feature>
					<threshold> 20.0 </threshold>
					<split pos="left">
						<output> 2.7665582820191048E-5 </output>
					</split>
					<split pos="right">
						<feature> 3 </feature>
						<threshold> 4.0 </threshold>
						<split pos="left">
							<output> -1.7599765851628035E-4 </output>
						</split>
						<split pos="right">
							<output> 2.4786122594377957E-5 </output>
						</split>
					</split>
				</split>
				<split pos="right">
					<feature> 2 </feature>
					<threshold> 374.0 </threshold>
					<split pos="left">
						<feature> 2 </feature>
						<threshold> 364.0 </threshold>
						<split pos="left">
							<feature> 3 </feature>
							<threshold> 44.0 </threshold>
							<split pos="left">
								<feature> 3 </feature>
								<threshold> 40.0 </threshold>
								<split pos="left">
									<feature> 15 </feature>
									<threshold> 0.0 </threshold>
									<split pos="left">
										<output> 1.2252073793206364E-4 </output>
									</split>
									<split pos="right">
										<output> 0.0018716432387009263 </output>
									</split>
								</split>
								<split pos="right">
									<output> 0.005122395697981119 </output>
								</split>
							</split>
							<split pos="right">
								<output> -8.17202206235379E-4 </output>
							</split>
						</split>
						<split pos="right">
							<output> 0.02121196873486042 </output>
						</split>
					</split>
					<split pos="right">
						<output> -0.005064265336841345 </output>
					</split>
				</split>
			</split>
		</split>
	</tree>
	<tree id="39" weight="0.1">
		<split>
			<feature> 4 </feature>
			<threshold> 14.0 </threshold>
			<split pos="left">
				<output> -1.0460385965416208E-5 </output>
			</split>
			<split pos="right">
				<feature> 15 </feature>
				<threshold> 0.0 </threshold>
				<split pos="left">
					<feature> 5 </feature>
					<threshold> 28.0 </threshold>
					<split pos="left">
						<feature> 2 </feature>
						<threshold> 4.0 </threshold>
						<split pos="left">
							<output> 0.0010754792019724846 </output>
						</split>
						<split pos="right">
							<feature> 8 </feature>
							<threshold> 967.9844 </threshold>
							<split pos="left">
								<feature> 5 </feature>
								<threshold> 19.0 </threshold>
								<split pos="left">
									<feature> 5 </feature>
									<threshold> 11.0 </threshold>
									<split pos="left">
										<feature> 5 </feature>
										<threshold> 9.0 </threshold>
										<split pos="left">
											<feature> 2 </feature>
											<threshold> 28.0 </threshold>
											<split pos="left">
												<output> -8.639151928946376E-5 </output>
											</split>
											<split pos="right">
												<output> 5.864573540748097E-5 </output>
											</split>
										</split>
										<split pos="right">
											<output> -0.001230543595738709 </output>
										</split>
									</split>
									<split pos="right">
										<output> 4.066845867782831E-4 </output>
									</split>
								</split>
								<split pos="right">
									<output> -7.771516684442759E-4 </output>
								</split>
							</split>
							<split pos="right">
								<output> 5.867835134267807E-4 </output>
							</split>
						</split>
					</split>
					<split pos="right">
						<output> 0.0064810230396687984 </output>
					</split>
				</split>
				<split pos="right">
					<output> 2.4026777828112245E-4 </output>
				</split>
			</split>
		</split>
	</tree>
	<tree id="40" weight="0.1">
		<split>
			<feature> 1 </feature>
			<threshold> 233.0 </threshold>
			<split pos="left">
				<feature> 1 </feature>
				<threshold> 218.0 </threshold>
				<split pos="left">
					<feature> 4 </feature>
					<threshold> 113.0 </threshold>
					<split pos="left">
						<feature> 5 </feature>
						<threshold> 9.0 </threshold>
						<split pos="left">
							<feature> 5 </feature>
							<threshold> 7.0 </threshold>
							<split pos="left">
								<feature> 7 </feature>
								<threshold> 63801.613 </threshold>
								<split pos="left">
									<feature> 9 </feature>
									<threshold> 22.0 </threshold>
									<split pos="left">
										<feature> 9 </feature>
										<threshold> 19.0 </threshold>
										<split pos="left">
											<feature> 13 </feature>
											<threshold> 0.0 </threshold>
											<split pos="left">
												<output> 1.4941681911295746E-5 </output>
											</split>
											<split pos="right">
												<output> -6.756583752576262E-5 </output>
											</split>
										</split>
										<split pos="right">
											<output> 9.444714523851871E-4 </output>
										</split>
									</split>
									<split pos="right">
										<output> -2.0758503524120897E-4 </output>
									</split>
								</split>
								<split pos="right">
									<output> -9.550522663630545E-4 </output>
								</split>
							</split>
							<split pos="right">
								<output> 2.2463552886620164E-4 </output>
							</split>
						</split>
						<split pos="right">
							<output> -1.4702930639032274E-4 </output>
						</split>
					</split>
					<split pos="right">
						<output> 2.1814000501763076E-4 </output>
					</split>
				</split>
				<split pos="right">
					<output> 0.0014674736885353923 </output>
				</split>
			</split>
			<split pos="right">
				<output> -6.620074418606237E-5 </output>
			</split>
		</split>
	</tree>
	<tree id="41" weight="0.1">
		<split>
			<feature> 6 </feature>
			<threshold> 355.0 </threshold>
			<split pos="left">
				<feature> 8 </feature>
				<threshold> 2903.9531 </threshold>
				<split pos="left">
					<feature> 2 </feature>
					<threshold> 374.0 </threshold>
					<split pos="left">
						<feature> 2 </feature>
						<threshold> 309.0 </threshold>
						<split pos="left">
							<feature> 5 </feature>
							<threshold> 23.0 </threshold>
							<split pos="left">
								<feature> 5 </feature>
								<threshold> 17.0 </threshold>
								<split pos="left">
									<feature> 5 </feature>
									<threshold> 16.0 </threshold>
									<split pos="left">
										<feature> 5 </feature>
										<threshold> 9.0 </threshold>
										<split pos="left">
											<feature> 5 </feature>
											<threshold> 7.0 </threshold>
											<split pos="left">
												<output> -8.650534510934449E-8 </output>
											</split>
											<split pos="right">
												<output> 3.694944898597896E-4 </output>
											</split>
										</split>
										<split pos="right">
											<output> -1.4629760698881E-4 </output>
										</split>
									</split>
									<split pos="right">
										<output> 0.001048885635100305 </output>
									</split>
								</split>
								<split pos="right">
									<output> -3.133781719952822E-4 </output>
								</split>
							</split>
							<split pos="right">
								<output> 5.444491398520768E-4 </output>
							</split>
						</split>
						<split pos="right">
							<output> 8.360850042663515E-4 </output>
						</split>
					</split>
					<split pos="right">
						<output> -2.8030457906425E-4 </output>
					</split>
				</split>
				<split pos="right">
					<output> 3.0815150239504874E-4 </output>
				</split>
			</split>
			<split pos="right">
				<output> -6.102463812567294E-4 </output>
			</split>
		</split>
	</tree>
	<tree id="42" weight="0.1">
		<split>
			<feature> 1 </feature>
			<threshold> 233.0 </threshold>
			<split pos="left">
				<feature> 1 </feature>
				<threshold> 218.0 </threshold>
				<split pos="left">
					<feature> 2 </feature>
					<threshold> 29.0 </threshold>
					<split pos="left">
						<feature> 4 </feature>
						<threshold> 51.0 </threshold>
						<split pos="left">
							<feature> 4 </feature>
							<threshold> 50.0 </threshold>
							<split pos="left">
								<feature> 5 </feature>
								<threshold> 24.0 </threshold>
								<split pos="left">
									<feature> 5 </feature>
									<threshold> 23.0 </threshold>
									<split pos="left">
										<feature> 2 </feature>
										<threshold> 21.0 </threshold>
										<split pos="left">
											<feature> 4 </feature>
											<threshold> 14.0 </threshold>
											<split pos="left">
												<output> -7.771050150040537E-6 </output>
											</split>
											<split pos="right">
												<output> 1.0279944399371743E-4 </output>
											</split>
										</split>
										<split pos="right">
											<output> -1.4370451390277594E-4 </output>
										</split>
									</split>
									<split pos="right">
										<output> 0.002851424040272832 </output>
									</split>
								</split>
								<split pos="right">
									<output> -8.231159299612045E-4 </output>
								</split>
							</split>
							<split pos="right">
								<output> 0.0018375839572399855 </output>
							</split>
						</split>
						<split pos="right">
							<output> -2.477065136190504E-4 </output>
						</split>
					</split>
					<split pos="right">
						<output> 1.0260766430292279E-4 </output>
					</split>
				</split>
				<split pos="right">
					<output> 0.0013204381102696061 </output>
				</split>
			</split>
			<split pos="right">
				<output> -5.9848196542588994E-5 </output>
			</split>
		</split>
	</tree>
	<tree id="43" weight="0.1">
		<split>
			<feature> 6 </feature>
			<threshold> 355.0 </threshold>
			<split pos="left">
				<feature> 4 </feature>
				<threshold> 297.0 </threshold>
				<split pos="left">
					<feature> 4 </feature>
					<threshold> 154.0 </threshold>
					<split pos="left">
						<feature> 4 </feature>
						<threshold> 151.0 </threshold>
						<split pos="left">
							<feature> 2 </feature>
							<threshold> 98.0 </threshold>
							<split pos="left">
								<feature> 2 </feature>
								<threshold> 37.0 </threshold>
								<split pos="left">
									<feature> 7 </feature>
									<threshold> 4816.1406 </threshold>
									<split pos="left">
										<feature> 4 </feature>
										<threshold> 115.0 </threshold>
										<split pos="left">
											<feature> 4 </feature>
											<threshold> 113.0 </threshold>
											<split pos="left">
												<output> 1.5193749050013139E-6 </output>
											</split>
											<split pos="right">
												<output> 0.002083317842334509 </output>
											</split>
										</split>
										<split pos="right">
											<output> -3.6267255200073123E-4 </output>
										</split>
									</split>
									<split pos="right">
										<output> 3.103047492913902E-4 </output>
									</split>
								</split>
								<split pos="right">
									<output> -1.2360638356767595E-4 </output>
								</split>
							</split>
							<split pos="right">
								<output> 5.485397414304316E-4 </output>
							</split>
						</split>
						<split pos="right">
							<output> 0.002196789486333728 </output>
						</split>
					</split>
					<split pos="right">
						<output> -2.04197465791367E-4 </output>
					</split>
				</split>
				<split pos="right">
					<output> 1.0128930443897843E-4 </output>
				</split>
			</split>
			<split pos="right">
				<output> -5.594799877144396E-4 </output>
			</split>
		</split>
	</tree>
	<tree id="44" weight="0.1">
		<split>
			<feature> 7 </feature>
			<threshold> 1606.0469 </threshold>
			<split pos="left">
				<feature> 4 </feature>
				<threshold> 415.0 </threshold>
				<split pos="left">
					<feature> 4 </feature>
					<threshold> 64.0 </threshold>
					<split pos="left">
						<feature> 4 </feature>
						<threshold> 59.0 </threshold>
						<split pos="left">
							<feature> 9 </feature>
							<threshold> 11.0 </threshold>
							<split pos="left">
								<feature> 6 </feature>
								<threshold> 58.0 </threshold>
								<split pos="left">
									<feature> 5 </feature>
									<threshold> 24.0 </threshold>
									<split pos="left">
										<feature> 1 </feature>
										<threshold> 90.0 </threshold>
										<split pos="left">
											<feature> 4 </feature>
											<threshold> 26.0 </threshold>
											<split pos="left">
												<output> -6.799485618103063E-6 </output>
											</split>
											<split pos="right">
												<output> 1.8378812819719315E-4 </output>
											</split>
										</split>
										<split pos="right">
											<output> -1.7030895105563104E-4 </output>
										</split>
									</split>
									<split pos="right">
										<output> -7.436597370542586E-4 </output>
									</split>
								</split>
								<split pos="right">
									<output> 5.318514304235578E-4 </output>
								</split>
							</split>
							<split pos="right">
								<output> 3.2099225791171193E-4 </output>
							</split>
						</split>
						<split pos="right">
							<output> 0.001017716247588396 </output>
						</split>
					</split>
					<split pos="right">
						<output> -8.882823021849617E-5 </output>
					</split>
				</split>
				<split pos="right">
					<output> 2.9136837110854685E-4 </output>
				</split>
			</split>
			<split pos="right">
				<output> -5.2019280701642856E-5 </output>
			</split>
		</split>
	</tree>
	<tree id="45" weight="0.1">
		<split>
			<feature> 5 </feature>
			<threshold> 22.0 </threshold>
			<split pos="left">
				<feature> 5 </feature>
				<threshold> 18.0 </threshold>
				<split pos="left">
					<feature> 5 </feature>
					<threshold> 16.0 </threshold>
					<split pos="left">
						<feature> 9 </feature>
						<threshold> 29.0 </threshold>
						<split pos="left">
							<feature> 9 </feature>
							<threshold> 24.0 </threshold>
							<split pos="left">
								<feature> 4 </feature>
								<threshold> 1612.0 </threshold>
								<split pos="left">
									<feature> 7 </feature>
									<threshold> 52165.023 </threshold>
									<split pos="left">
										<feature> 4 </feature>
										<threshold> 5.0 </threshold>
										<split pos="left">
											<output> -1.907100886455737E-5 </output>
										</split>
										<split pos="right">
											<feature> 5 </feature>
											<threshold> 5.0 </threshold>
											<split pos="left">
												<output> 4.011291821370833E-6 </output>
											</split>
											<split pos="right">
												<output> 3.656345361378044E-4 </output>
											</split>
										</split>
									</split>
									<split pos="right">
										<output> 4.094915639143437E-4 </output>
									</split>
								</split>
								<split pos="right">
									<output> -2.185224584536627E-4 </output>
								</split>
							</split>
							<split pos="right">
								<output> 4.87364421132952E-4 </output>
							</split>
						</split>
						<split pos="right">
							<output> -1.9908274407498538E-4 </output>
						</split>
					</split>
					<split pos="right">
						<output> 4.2516051325947046E-4 </output>
					</split>
				</split>
				<split pos="right">
					<output> -3.8371962727978826E-4 </output>
				</split>
			</split>
			<split pos="right">
				<output> 3.691399469971657E-4 </output>
			</split>
		</split>
	</tree>
	<tree id="46" weight="0.1">
		<split>
			<feature> 8 </feature>
			<threshold> 2903.9531 </threshold>
			<split pos="left">
				<feature> 2 </feature>
				<threshold> 374.0 </threshold>
				<split pos="left">
					<feature> 2 </feature>
					<threshold> 309.0 </threshold>
					<split pos="left">
						<feature> 5 </feature>
						<threshold> 9.0 </threshold>
						<split pos="left">
							<feature> 5 </feature>
							<threshold> 7.0 </threshold>
							<split pos="left">
								<feature> 7 </feature>
								<threshold> 84667.41 </threshold>
								<split pos="left">
									<feature> 2 </feature>
									<threshold> 107.0 </threshold>
									<split pos="left">
										<feature> 1 </feature>
										<threshold> 231.0 </threshold>
										<split pos="left">
											<feature> 1 </feature>
											<threshold> 218.0 </threshold>
											<split pos="left">
												<output> 3.144172524116584E-6 </output>
											</split>
											<split pos="right">
												<output> 0.0010143991094082594 </output>
											</split>
										</split>
										<split pos="right">
											<output> -1.4495661889668554E-4 </output>
										</split>
									</split>
									<split pos="right">
										<output> 1.0991329327225685E-4 </output>
									</split>
								</split>
								<split pos="right">
									<output> -9.249948780052364E-4 </output>
								</split>
							</split>
							<split pos="right">
								<output> 3.1352019868791103E-4 </output>
							</split>
						</split>
						<split pos="right">
							<output> -1.0091837611980736E-4 </output>
						</split>
					</split>
					<split pos="right">
						<output> 7.288408814929426E-4 </output>
					</split>
				</split>
				<split pos="right">
					<output> -2.5141757214441895E-4 </output>
				</split>
			</split>
			<split pos="right">
				<output> 2.745785459410399E-4 </output>
			</split>
		</split>
	</tree>
	<tree id="47" weight="0.1">
		<split>
			<feature> 5 </feature>
			<threshold> 22.0 </threshold>
			<split pos="left">
				<feature> 5 </feature>
				<threshold> 17.0 </threshold>
				<split pos="left">
					<feature> 5 </feature>
					<threshold> 16.0 </threshold>
					<split pos="left">
						<feature> 5 </feature>
						<threshold> 15.0 </threshold>
						<split pos="left">
							<feature> 1 </feature>
							<threshold> 631.0 </threshold>
							<split pos="left">
								<feature> 1 </feature>
								<threshold> 611.0 </threshold>
								<split pos="left">
									<feature> 4 </feature>
									<threshold> 397.0 </threshold>
									<split pos="left">
										<feature> 7 </feature>
										<threshold> 52165.023 </threshold>
										<split pos="left">
											<feature> 13 </feature>
											<threshold> 0.0 </threshold>
											<split pos="left">
												<output> 8.134541531035211E-6 </output>
											</split>
											<split pos="right">
												<output> -6.493594264611602E-5 </output>
											</split>
										</split>
										<split pos="right">
											<output> 4.062859225086868E-4 </output>
										</split>
									</split>
									<split pos="right">
										<output> 7.033691508695483E-4 </output>
									</split>
								</split>
								<split pos="right">
									<output> 0.0015415773959830403 </output>
								</split>
							</split>
							<split pos="right">
								<output> -9.495525591773912E-5 </output>
							</split>
						</split>
						<split pos="right">
							<output> -4.3374503729864955E-4 </output>
						</split>
					</split>
					<split pos="right">
						<output> 0.0011401803931221366 </output>
					</split>
				</split>
				<split pos="right">
					<output> -2.7845855220220983E-4 </output>
				</split>
			</split>
			<split pos="right">
				<output> 3.421496949158609E-4 </output>
			</split>
		</split>
	</tree>
	<tree id="48" weight="0.1">
		<split>
			<feature> 6 </feature>
			<threshold> 355.0 </threshold>
			<split pos="left">
				<feature> 3 </feature>
				<threshold> 2.0 </threshold>
				<split pos="left">
					<feature> 1 </feature>
					<threshold> 462.0 </threshold>
					<split pos="left">
						<output> -1.0780689081002492E-5 </output>
					</split>
					<split pos="right">
						<output> -0.0014174968237057328 </output>
					</split>
				</split>
				<split pos="right">
					<feature> 3 </feature>
					<threshold> 3.0 </threshold>
					<split pos="left">
						<output> 2.9222675948403776E-4 </output>
					</split>
					<split pos="right">
						<feature> 5 </feature>
						<threshold> 22.0 </threshold>
						<split pos="left">
							<feature> 5 </feature>
							<threshold> 18.0 </threshold>
							<split pos="left">
								<feature> 5 </feature>
								<threshold> 16.0 </threshold>
								<split pos="left">
									<feature> 5 </feature>
									<threshold> 9.0 </threshold>
									<split pos="left">
										<feature> 9 </feature>
										<threshold> 24.0 </threshold>
										<split pos="left">
											<output> -5.8080781855096575E-6 </output>
										</split>
										<split pos="right">
											<output> 3.4511598641984165E-4 </output>
										</split>
									</split>
									<split pos="right">
										<output> -3.5633661900646985E-4 </output>
									</split>
								</split>
								<split pos="right">
									<output> 0.0013176106149330735 </output>
								</split>
							</split>
							<split pos="right">
								<output> -8.466023718938231E-4 </output>
							</split>
						</split>
						<split pos="right">
							<output> 0.001647086115553975 </output>
						</split>
					</split>
				</split>
			</split>
			<split pos="right">
				<output> -5.728939431719482E-4 </output>
			</split>
		</split>
	</tree>
	<tree id="49" weight="0.1">
		<split>
			<feature> 9 </feature>
			<threshold> 29.0 </threshold>
			<split pos="left">
				<feature> 9 </feature>
				<threshold> 26.0 </threshold>
				<split pos="left">
					<feature> 9 </feature>
					<threshold> 25.0 </threshold>
					<split pos="left">
						<feature> 9 </feature>
						<threshold> 24.0 </threshold>
						<split pos="left">
							<feature> 5 </feature>
							<threshold> 22.0 </threshold>
							<split pos="left">
								<feature> 5 </feature>
								<threshold> 17.0 </threshold>
								<split pos="left">
									<feature> 5 </feature>
									<threshold> 16.0 </threshold>
									<split pos="left">
										<feature> 1 </feature>
										<threshold> 109.0 </threshold>
										<split pos="left">
											<feature> 4 </feature>
											<threshold> 131.0 </threshold>
											<split pos="left">
												<output> 4.370272563392064E-6 </output>
											</split>
											<split pos="right">
												<output> 0.002142799785360694 </output>
											</split>
										</split>
										<split pos="right">
											<output> -4.950322909280658E-5 </output>
										</split>
									</split>
									<split pos="right">
										<output> 0.0010477752657607198 </output>
									</split>
								</split>
								<split pos="right">
									<output> -2.5341796572320163E-4 </output>
								</split>
							</split>
							<split pos="right">
								<output> 3.301386022940278E-4 </output>
							</split>
						</split>
						<split pos="right">
							<output> 0.0016473863506689668 </output>
						</split>
					</split>
					<split pos="right">
						<output> -6.174801965244114E-4 </output>
					</split>
				</split>
				<split pos="right">
					<output> 5.17693639267236E-4 </output>
				</split>
			</split>
			<split pos="right">
				<output> -1.5952499234117568E-4 </output>
			</split>
		</split>
	</tree>
	<tree id="50" weight="0.1">
		<split>
			<feature> 6 </feature>
			<threshold> 355.0 </threshold>
			<split pos="left">
				<feature> 2 </feature>
				<threshold> 28.0 </threshold>
				<split pos="left">
					<feature> 4 </feature>
					<threshold> 221.0 </threshold>
					<split pos="left">
						<feature> 4 </feature>
						<threshold> 63.0 </threshold>
						<split pos="left">
							<feature> 4 </feature>
							<threshold> 58.0 </threshold>
							<split pos="left">
								<feature> 5 </feature>
								<threshold> 28.0 </threshold>
								<split pos="left">
									<feature> 9 </feature>
									<threshold> 15.0 </threshold>
									<split pos="left">
										<feature> 9 </feature>
										<threshold> 14.0 </threshold>
										<split pos="left">
											<output> -6.804800705140224E-7 </output>
										</split>
										<split pos="right">
											<output> 0.001098046312108636 </output>
										</split>
									</split>
									<split pos="right">
										<output> -2.4738843785598874E-4 </output>
									</split>
								</split>
								<split pos="right">
									<output> 0.0017334858421236277 </output>
								</split>
							</split>
							<split pos="right">
								<output> 0.0019181669922545552 </output>
							</split>
						</split>
						<split pos="right">
							<output> -2.2909419203642756E-4 </output>
						</split>
					</split>
					<split pos="right">
						<output> -0.001213957672007382 </output>
					</split>
				</split>
				<split pos="right">
					<feature> 2 </feature>
					<threshold> 31.0 </threshold>
					<split pos="left">
						<output> 6.331530166789889E-4 </output>
					</split>
					<split pos="right">
						<output> -1.4573309272236656E-5 </output>
					</split>
				</split>
			</split>
			<split pos="right">
				<output> -5.108652403578162E-4 </output>
			</split>
		</split>
	</tree>
	<tree id="51" weight="0.1">
		<split>
			<feature> 8 </feature>
			<threshold> 967.9844 </threshold>
			<split pos="left">
				<feature> 8 </feature>
				<threshold> 483.9922 </threshold>
				<split pos="left">
					<feature> 5 </feature>
					<threshold> 9.0 </threshold>
					<split pos="left">
						<feature> 5 </feature>
						<threshold> 7.0 </threshold>
						<split pos="left">
							<feature> 7 </feature>
							<threshold> 84667.41 </threshold>
							<split pos="left">
								<feature> 2 </feature>
								<threshold> 107.0 </threshold>
								<split pos="left">
									<feature> 1 </feature>
									<threshold> 179.0 </threshold>
									<split pos="left">
										<feature> 1 </feature>
										<threshold> 166.0 </threshold>
										<split pos="left">
											<feature> 1 </feature>
											<threshold> 107.0 </threshold>
											<split pos="left">
												<output> 7.788217772031203E-6 </output>
											</split>
											<split pos="right">
												<output> -1.6753302770666778E-4 </output>
											</split>
										</split>
										<split pos="right">
											<output> 4.319256986491382E-4 </output>
										</split>
									</split>
									<split pos="right">
										<output> -1.1003809049725533E-4 </output>
									</split>
								</split>
								<split pos="right">
									<output> 1.0580607340671122E-4 </output>
								</split>
							</split>
							<split pos="right">
								<output> -8.656060672365129E-4 </output>
							</split>
						</split>
						<split pos="right">
							<output> 2.520029665902257E-4 </output>
						</split>
					</split>
					<split pos="right">
						<output> -8.374539174837992E-5 </output>
					</split>
				</split>
				<split pos="right">
					<output> -1.9040661572944373E-4 </output>
				</split>
			</split>
			<split pos="right">
				<output> 1.455745950806886E-4 </output>
			</split>
		</split>
	</tree>
	<tree id="52" weight="0.1">
		<split>
			<feature> 7 </feature>
			<threshold> 1204.7852 </threshold>
			<split pos="left">
				<feature> 4 </feature>
				<threshold> 415.0 </threshold>
				<split pos="left">
					<feature> 7 </feature>
					<threshold> 803.52344 </threshold>
					<split pos="left">
						<feature> 5 </feature>
						<threshold> 19.0 </threshold>
						<split pos="left">
							<feature> 4 </feature>
							<threshold> 25.0 </threshold>
							<split pos="left">
								<feature> 6 </feature>
								<threshold> 49.0 </threshold>
								<split pos="left">
									<feature> 5 </feature>
									<threshold> 16.0 </threshold>
									<split pos="left">
										<feature> 5 </feature>
										<threshold> 7.0 </threshold>
										<split pos="left">
											<output> -4.878098025073996E-6 </output>
										</split>
										<split pos="right">
											<output> -1.812754780985415E-4 </output>
										</split>
									</split>
									<split pos="right">
										<output> 3.5868771374225616E-4 </output>
									</split>
								</split>
								<split pos="right">
									<output> 4.8556170077063143E-4 </output>
								</split>
							</split>
							<split pos="right">
								<feature> 5 </feature>
								<threshold> 5.0 </threshold>
								<split pos="left">
									<output> -8.076366611931007E-6 </output>
								</split>
								<split pos="right">
									<output> 0.0011061282129958272 </output>
								</split>
							</split>
						</split>
						<split pos="right">
							<output> -3.7848055944778025E-4 </output>
						</split>
					</split>
					<split pos="right">
						<output> 1.1418909707572311E-4 </output>
					</split>
				</split>
				<split pos="right">
					<output> 2.974506642203778E-4 </output>
				</split>
			</split>
			<split pos="right">
				<output> -4.251417703926563E-5 </output>
			</split>
		</split>
	</tree>
	<tree id="53" weight="0.1">
		<split>
			<feature> 12 </feature>
			<threshold> 0.0 </threshold>
			<split pos="left">
				<feature> 7 </feature>
				<threshold> 1204.7852 </threshold>
				<split pos="left">
					<feature> 3 </feature>
					<threshold> 40.0 </threshold>
					<split pos="left">
						<feature> 1 </feature>
						<threshold> 951.0 </threshold>
						<split pos="left">
							<feature> 5 </feature>
							<threshold> 21.0 </threshold>
							<split pos="left">
								<feature> 1 </feature>
								<threshold> 631.0 </threshold>
								<split pos="left">
									<feature> 4 </feature>
									<threshold> 356.0 </threshold>
									<split pos="left">
										<feature> 1 </feature>
										<threshold> 589.0 </threshold>
										<split pos="left">
											<feature> 4 </feature>
											<threshold> 137.0 </threshold>
											<split pos="left">
												<output> -5.04593526784447E-6 </output>
											</split>
											<split pos="right">
												<output> 2.823570102918893E-4 </output>
											</split>
										</split>
										<split pos="right">
											<output> 0.0011166216572746634 </output>
										</split>
									</split>
									<split pos="right">
										<output> 0.0014439938822761178 </output>
									</split>
								</split>
								<split pos="right">
									<output> -3.5660297726280987E-4 </output>
								</split>
							</split>
							<split pos="right">
								<output> -6.047210772521794E-4 </output>
							</split>
						</split>
						<split pos="right">
							<output> 6.161684286780655E-4 </output>
						</split>
					</split>
					<split pos="right">
						<output> 1.5333364717662334E-4 </output>
					</split>
				</split>
				<split pos="right">
					<output> -6.683772517135367E-5 </output>
				</split>
			</split>
			<split pos="right">
				<output> 6.099788151914254E-5 </output>
			</split>
		</split>
	</tree>
	<tree id="54" weight="0.1">
		<split>
			<feature> 6 </feature>
			<threshold> 60.0 </threshold>
			<split pos="left">
				<feature> 6 </feature>
				<threshold> 58.0 </threshold>
				<split pos="left">
					<feature> 5 </feature>
					<threshold> 22.0 </threshold>
					<split pos="left">
						<feature> 5 </feature>
						<threshold> 17.0 </threshold>
						<split pos="left">
							<feature> 5 </feature>
							<threshold> 16.0 </threshold>
							<split pos="left">
								<feature> 9 </feature>
								<threshold> 29.0 </threshold>
								<split pos="left">
									<feature> 9 </feature>
